digraph Tree {
node [shape=box, style="rounded", color="black", fontname=helvetica] ;
edge [fontname=helvetica] ;
0 [label="prothrombin <= 1.5\nentropy = 0.4\nsamples = 447\nvalue = [565, 7350]"] ;
1 [label="SERUM_SODIUM <= 144.5\nentropy = 0.4\nsamples = 434\nvalue = [541, 7350]"] ;
0 -> 1 [labeldistance=2.5, labelangle=45, headlabel="True"] ;
2 [label="gastrojejunostomy <= 0.5\nentropy = 0.4\nsamples = 428\nvalue = [532, 7350]"] ;
1 -> 2 ;
3 [label="CCI <= 0.5\nentropy = 0.4\nsamples = 424\nvalue = [523, 7350]"] ;
2 -> 3 ;
4 [label="urine <= 98.5\nentropy = 0.3\nsamples = 417\nvalue = [512, 7350]"] ;
3 -> 4 ;
5 [label="Chest <= 0.5\nentropy = 0.1\nsamples = 52\nvalue = [32, 2100]"] ;
4 -> 5 ;
6 [label="Height <= 176.0\nentropy = 0.1\nsamples = 49\nvalue = [26, 2100]"] ;
5 -> 6 ;
7 [label="morning <= 0.5\nentropy = 0.1\nsamples = 46\nvalue = [23, 2100]"] ;
6 -> 7 ;
8 [label="stoma <= 97.0\nentropy = 0.0\nsamples = 30\nvalue = [8, 1700]"] ;
7 -> 8 ;
9 [label="entropy = 0.0\nsamples = 1\nvalue = [1, 0]"] ;
8 -> 9 ;
10 [label="stoma <= 425.0\nentropy = 0.0\nsamples = 29\nvalue = [7, 1700]"] ;
8 -> 10 ;
11 [label="continuous <= 0.5\nentropy = 0.0\nsamples = 28\nvalue = [6, 1700]"] ;
10 -> 11 ;
12 [label="cellulitis <= 0.5\nentropy = 0.0\nsamples = 27\nvalue = [5, 1700]"] ;
11 -> 12 ;
13 [label="chronic colitis <= 0.5\nentropy = 0.0\nsamples = 26\nvalue = [4, 1700]"] ;
12 -> 13 ;
14 [label="yrs <= 0.5\nentropy = 0.0\nsamples = 25\nvalue = [4, 1550]"] ;
13 -> 14 ;
15 [label="mg <= 0.5\nentropy = 0.0\nsamples = 24\nvalue = [3, 1550]"] ;
14 -> 15 ;
16 [label="male <= 0.5\nentropy = 0.0\nsamples = 23\nvalue = [2, 1550]"] ;
15 -> 16 ;
17 [label="fever <= 0.5\nentropy = 0.0\nsamples = 22\nvalue = [1, 1550]"] ;
16 -> 17 ;
18 [label="urine <= 97.5\nentropy = 0.0\nsamples = 14\nvalue = [1, 1000]"] ;
17 -> 18 ;
19 [label="entropy = 0.0\nsamples = 4\nvalue = [0, 350]"] ;
18 -> 19 ;
20 [label="ivf <= 0.5\nentropy = 0.0\nsamples = 10\nvalue = [1, 650]"] ;
18 -> 20 ;
21 [label="Tube <= 0.5\nentropy = 0.0\nsamples = 9\nvalue = [1, 550]"] ;
20 -> 21 ;
22 [label="ml <= 0.5\nentropy = 0.0\nsamples = 7\nvalue = [1, 350]"] ;
21 -> 22 ;
23 [label="Pt <= 0.5\nentropy = 0.1\nsamples = 2\nvalue = [1, 50]"] ;
22 -> 23 ;
24 [label="entropy = 0.0\nsamples = 1\nvalue = [1, 0]"] ;
23 -> 24 ;
25 [label="entropy = 0.0\nsamples = 1\nvalue = [0, 50]"] ;
23 -> 25 ;
26 [label="entropy = 0.0\nsamples = 5\nvalue = [0, 300]"] ;
22 -> 26 ;
27 [label="entropy = 0.0\nsamples = 2\nvalue = [0, 200]"] ;
21 -> 27 ;
28 [label="entropy = 0.0\nsamples = 1\nvalue = [0, 100]"] ;
20 -> 28 ;
29 [label="entropy = 0.0\nsamples = 8\nvalue = [0, 550]"] ;
17 -> 29 ;
30 [label="entropy = 0.0\nsamples = 1\nvalue = [1, 0]"] ;
16 -> 30 ;
31 [label="entropy = 0.0\nsamples = 1\nvalue = [1, 0]"] ;
15 -> 31 ;
32 [label="entropy = 0.0\nsamples = 1\nvalue = [1, 0]"] ;
14 -> 32 ;
33 [label="entropy = 0.0\nsamples = 1\nvalue = [0, 150]"] ;
13 -> 33 ;
34 [label="entropy = 0.0\nsamples = 1\nvalue = [1, 0]"] ;
12 -> 34 ;
35 [label="entropy = 0.0\nsamples = 1\nvalue = [1, 0]"] ;
11 -> 35 ;
36 [label="entropy = 0.0\nsamples = 1\nvalue = [1, 0]"] ;
10 -> 36 ;
37 [label="night <= 0.5\nentropy = 0.2\nsamples = 16\nvalue = [15, 400]"] ;
7 -> 37 ;
38 [label="SGPT <= 18.5\nentropy = 0.2\nsamples = 14\nvalue = [13, 400]"] ;
37 -> 38 ;
39 [label="entropy = 0.0\nsamples = 2\nvalue = [5, 0]"] ;
38 -> 39 ;
40 [label="Pancreatic necrosectomy <= 0.5\nentropy = 0.1\nsamples = 12\nvalue = [8, 400]"] ;
38 -> 40 ;
41 [label="back <= 0.5\nentropy = 0.1\nsamples = 11\nvalue = [7, 400]"] ;
40 -> 41 ;
42 [label="negative <= 0.5\nentropy = 0.1\nsamples = 10\nvalue = [6, 400]"] ;
41 -> 42 ;
43 [label="PV <= 0.5\nentropy = 0.1\nsamples = 8\nvalue = [4, 400]"] ;
42 -> 43 ;
44 [label="hr <= 0.5\nentropy = 0.0\nsamples = 7\nvalue = [2, 400]"] ;
43 -> 44 ;
45 [label="entropy = 0.0\nsamples = 4\nvalue = [0, 350]"] ;
44 -> 45 ;
46 [label="TOTAL_PROTEIN <= 5.7\nentropy = 0.2\nsamples = 3\nvalue = [2, 50]"] ;
44 -> 46 ;
47 [label="entropy = 0.0\nsamples = 2\nvalue = [2, 0]"] ;
46 -> 47 ;
48 [label="entropy = 0.0\nsamples = 1\nvalue = [0, 50]"] ;
46 -> 48 ;
49 [label="entropy = 0.0\nsamples = 1\nvalue = [2, 0]"] ;
43 -> 49 ;
50 [label="entropy = 0.0\nsamples = 2\nvalue = [2, 0]"] ;
42 -> 50 ;
51 [label="entropy = 0.0\nsamples = 1\nvalue = [1, 0]"] ;
41 -> 51 ;
52 [label="entropy = 0.0\nsamples = 1\nvalue = [1, 0]"] ;
40 -> 52 ;
53 [label="entropy = 0.0\nsamples = 2\nvalue = [2, 0]"] ;
37 -> 53 ;
54 [label="entropy = 0.0\nsamples = 3\nvalue = [3, 0]"] ;
6 -> 54 ;
55 [label="entropy = 0.0\nsamples = 3\nvalue = [6, 0]"] ;
5 -> 55 ;
56 [label="SGPT <= 50.0\nentropy = 0.4\nsamples = 365\nvalue = [480, 5250]"] ;
4 -> 56 ;
57 [label="Albumin <= 0.5\nentropy = 0.4\nsamples = 354\nvalue = [460, 5250]"] ;
56 -> 57 ;
58 [label="stoma <= 95.5\nentropy = 0.4\nsamples = 345\nvalue = [446, 5250]"] ;
57 -> 58 ;
59 [label="present <= 0.5\nentropy = 0.1\nsamples = 11\nvalue = [5, 500]"] ;
58 -> 59 ;
60 [label="SERUM_ALBUMIN <= 2.1\nentropy = 0.0\nsamples = 5\nvalue = [1, 400]"] ;
59 -> 60 ;
61 [label="entropy = 0.0\nsamples = 1\nvalue = [1, 0]"] ;
60 -> 61 ;
62 [label="entropy = 0.0\nsamples = 4\nvalue = [0, 400]"] ;
60 -> 62 ;
63 [label="iv <= 0.5\nentropy = 0.2\nsamples = 6\nvalue = [4, 100]"] ;
59 -> 63 ;
64 [label="SERUM_SODIUM <= 137.0\nentropy = 0.2\nsamples = 5\nvalue = [3, 100]"] ;
63 -> 64 ;
65 [label="entropy = 0.0\nsamples = 1\nvalue = [1, 0]"] ;
64 -> 65 ;
66 [label="low <= 0.5\nentropy = 0.1\nsamples = 4\nvalue = [2, 100]"] ;
64 -> 66 ;
67 [label="entropy = 0.0\nsamples = 2\nvalue = [2, 0]"] ;
66 -> 67 ;
68 [label="entropy = 0.0\nsamples = 2\nvalue = [0, 100]"] ;
66 -> 68 ;
69 [label="entropy = 0.0\nsamples = 1\nvalue = [1, 0]"] ;
63 -> 69 ;
70 [label="hematoma <= 0.5\nentropy = 0.4\nsamples = 334\nvalue = [441, 4750]"] ;
58 -> 70 ;
71 [label="colostomy <= 0.5\nentropy = 0.4\nsamples = 330\nvalue = [435, 4750]"] ;
70 -> 71 ;
72 [label="abdominoplasty <= 0.5\nentropy = 0.4\nsamples = 318\nvalue = [413, 4750]"] ;
71 -> 72 ;
73 [label="WOUND <= 0.5\nentropy = 0.4\nsamples = 316\nvalue = [406, 4750]"] ;
72 -> 73 ;
74 [label="fentanyl <= 0.5\nentropy = 0.4\nsamples = 308\nvalue = [396, 4750]"] ;
73 -> 74 ;
75 [label="Vomiting <= 0.5\nentropy = 0.4\nsamples = 303\nvalue = [388, 4750]"] ;
74 -> 75 ;
76 [label="urine <= 1330.0\nentropy = 0.4\nsamples = 293\nvalue = [382, 4350]"] ;
75 -> 76 ;
77 [label="SERUM_CREATININE <= 0.8\nentropy = 0.5\nsamples = 269\nvalue = [364, 3350]"] ;
76 -> 77 ;
78 [label="Right <= 0.5\nentropy = 0.5\nsamples = 259\nvalue = [355, 2750]"] ;
77 -> 78 ;
79 [label="Died <= 0.5\nentropy = 0.5\nsamples = 219\nvalue = [302, 2600]"] ;
78 -> 79 ;
80 [label="ml <= 0.5\nentropy = 0.5\nsamples = 217\nvalue = [301, 2400]"] ;
79 -> 80 ;
81 [label="ORAL <= 0.5\nentropy = 0.3\nsamples = 45\nvalue = [45, 1000]"] ;
80 -> 81 ;
82 [label="hb <= 0.5\nentropy = 0.2\nsamples = 42\nvalue = [42, 1000]"] ;
81 -> 82 ;
83 [label="Kg <= 0.5\nentropy = 0.2\nsamples = 40\nvalue = [40, 1000]"] ;
82 -> 83 ;
84 [label="chest <= 0.5\nentropy = 0.2\nsamples = 39\nvalue = [38, 1000]"] ;
83 -> 84 ;
85 [label="anterior <= 0.5\nentropy = 0.2\nsamples = 37\nvalue = [36, 1000]"] ;
84 -> 85 ;
86 [label="PR <= 0.5\nentropy = 0.2\nsamples = 35\nvalue = [34, 1000]"] ;
85 -> 86 ;
87 [label="Height <= 159.0\nentropy = 0.2\nsamples = 33\nvalue = [34, 850]"] ;
86 -> 87 ;
88 [label="entropy = 0.0\nsamples = 4\nvalue = [5, 0]"] ;
87 -> 88 ;
89 [label="cholecystectomy <= 0.5\nentropy = 0.2\nsamples = 29\nvalue = [29, 850]"] ;
87 -> 89 ;
90 [label="diverticulum <= 0.5\nentropy = 0.2\nsamples = 21\nvalue = [20, 750]"] ;
89 -> 90 ;
91 [label="IVF <= 0.5\nentropy = 0.2\nsamples = 20\nvalue = [20, 700]"] ;
90 -> 91 ;
92 [label="ECHO <= 0.5\nentropy = 0.2\nsamples = 18\nvalue = [17, 700]"] ;
91 -> 92 ;
93 [label="Patient <= 0.5\nentropy = 0.2\nsamples = 17\nvalue = [16, 700]"] ;
92 -> 93 ;
94 [label="Hb <= 0.5\nentropy = 0.2\nsamples = 16\nvalue = [16, 650]"] ;
93 -> 94 ;
95 [label="tab <= 0.5\nentropy = 0.2\nsamples = 14\nvalue = [14, 550]"] ;
94 -> 95 ;
96 [label="oral <= 0.5\nentropy = 0.1\nsamples = 13\nvalue = [12, 550]"] ;
95 -> 96 ;
97 [label="STABLE <= 0.5\nentropy = 0.2\nsamples = 12\nvalue = [12, 500]"] ;
96 -> 97 ;
98 [label="Pt <= 0.5\nentropy = 0.2\nsamples = 11\nvalue = [12, 400]"] ;
97 -> 98 ;
99 [label="weight <= 117.4\nentropy = 0.2\nsamples = 9\nvalue = [11, 350]"] ;
98 -> 99 ;
100 [label="pain <= 0.5\nentropy = 0.2\nsamples = 8\nvalue = [11, 300]"] ;
99 -> 100 ;
101 [label="liquid <= 0.5\nentropy = 0.3\nsamples = 7\nvalue = [11, 200]"] ;
100 -> 101 ;
102 [label="head <= 0.5\nentropy = 0.3\nsamples = 6\nvalue = [9, 200]"] ;
101 -> 102 ;
103 [label="BLOOD SUGAR <= 11.2\nentropy = 0.3\nsamples = 5\nvalue = [9, 150]"] ;
102 -> 103 ;
104 [label="None <= 0.5\nentropy = 0.3\nsamples = 4\nvalue = [8, 150]"] ;
103 -> 104 ;
105 [label="entropy = 0.0\nsamples = 1\nvalue = [5, 0]"] ;
104 -> 105 ;
106 [label="entropy = 0.1\nsamples = 3\nvalue = [3, 150]"] ;
104 -> 106 ;
107 [label="entropy = 0.0\nsamples = 1\nvalue = [1, 0]"] ;
103 -> 107 ;
108 [label="entropy = 0.0\nsamples = 1\nvalue = [0, 50]"] ;
102 -> 108 ;
109 [label="entropy = 0.0\nsamples = 1\nvalue = [2, 0]"] ;
101 -> 109 ;
110 [label="entropy = 0.0\nsamples = 1\nvalue = [0, 100]"] ;
100 -> 110 ;
111 [label="entropy = 0.0\nsamples = 1\nvalue = [0, 50]"] ;
99 -> 111 ;
112 [label="good <= 0.5\nentropy = 0.1\nsamples = 2\nvalue = [1, 50]"] ;
98 -> 112 ;
113 [label="entropy = 0.0\nsamples = 1\nvalue = [0, 50]"] ;
112 -> 113 ;
114 [label="entropy = 0.0\nsamples = 1\nvalue = [1, 0]"] ;
112 -> 114 ;
115 [label="entropy = 0.0\nsamples = 1\nvalue = [0, 100]"] ;
97 -> 115 ;
116 [label="entropy = 0.0\nsamples = 1\nvalue = [0, 50]"] ;
96 -> 116 ;
117 [label="entropy = 0.0\nsamples = 1\nvalue = [2, 0]"] ;
95 -> 117 ;
118 [label="Gallstones <= 0.5\nentropy = 0.1\nsamples = 2\nvalue = [2, 100]"] ;
94 -> 118 ;
119 [label="entropy = 0.0\nsamples = 1\nvalue = [0, 100]"] ;
118 -> 119 ;
120 [label="entropy = 0.0\nsamples = 1\nvalue = [2, 0]"] ;
118 -> 120 ;
121 [label="entropy = 0.0\nsamples = 1\nvalue = [0, 50]"] ;
93 -> 121 ;
122 [label="entropy = 0.0\nsamples = 1\nvalue = [1, 0]"] ;
92 -> 122 ;
123 [label="entropy = 0.0\nsamples = 2\nvalue = [3, 0]"] ;
91 -> 123 ;
124 [label="entropy = 0.0\nsamples = 1\nvalue = [0, 50]"] ;
90 -> 124 ;
125 [label="blood transfusion <= 0.5\nentropy = 0.4\nsamples = 8\nvalue = [9, 100]"] ;
89 -> 125 ;
126 [label="splenectomy <= 0.5\nentropy = 0.4\nsamples = 7\nvalue = [8, 100]"] ;
125 -> 126 ;
127 [label="TLC <= 0.5\nentropy = 0.3\nsamples = 6\nvalue = [7, 100]"] ;
126 -> 127 ;
128 [label="fever <= 0.5\nentropy = 0.3\nsamples = 5\nvalue = [6, 100]"] ;
127 -> 128 ;
129 [label="entropy = 0.0\nsamples = 3\nvalue = [4, 0]"] ;
128 -> 129 ;
130 [label="Stable <= 0.5\nentropy = 0.1\nsamples = 2\nvalue = [2, 100]"] ;
128 -> 130 ;
131 [label="entropy = 0.0\nsamples = 1\nvalue = [2, 0]"] ;
130 -> 131 ;
132 [label="entropy = 0.0\nsamples = 1\nvalue = [0, 100]"] ;
130 -> 132 ;
133 [label="entropy = 0.0\nsamples = 1\nvalue = [1, 0]"] ;
127 -> 133 ;
134 [label="entropy = 0.0\nsamples = 1\nvalue = [1, 0]"] ;
126 -> 134 ;
135 [label="entropy = 0.0\nsamples = 1\nvalue = [1, 0]"] ;
125 -> 135 ;
136 [label="entropy = 0.0\nsamples = 2\nvalue = [0, 150]"] ;
86 -> 136 ;
137 [label="entropy = 0.0\nsamples = 2\nvalue = [2, 0]"] ;
85 -> 137 ;
138 [label="entropy = 0.0\nsamples = 2\nvalue = [2, 0]"] ;
84 -> 138 ;
139 [label="entropy = 0.0\nsamples = 1\nvalue = [2, 0]"] ;
83 -> 139 ;
140 [label="entropy = 0.0\nsamples = 2\nvalue = [2, 0]"] ;
82 -> 140 ;
141 [label="entropy = 0.0\nsamples = 3\nvalue = [3, 0]"] ;
81 -> 141 ;
142 [label="Ct <= 0.5\nentropy = 0.6\nsamples = 172\nvalue = [256, 1400]"] ;
80 -> 142 ;
143 [label="unit <= 0.5\nentropy = 0.6\nsamples = 169\nvalue = [251, 1400]"] ;
142 -> 143 ;
144 [label="WBC <= 9475.0\nentropy = 0.6\nsamples = 162\nvalue = [237, 1400]"] ;
143 -> 144 ;
145 [label="entropy = 0.0\nsamples = 8\nvalue = [17, 0]"] ;
144 -> 145 ;
146 [label="low <= 0.5\nentropy = 0.6\nsamples = 154\nvalue = [220, 1400]"] ;
144 -> 146 ;
147 [label="iv fluids <= 0.5\nentropy = 0.7\nsamples = 133\nvalue = [201, 1000]"] ;
146 -> 147 ;
148 [label="continue <= 0.5\nentropy = 0.6\nsamples = 125\nvalue = [190, 1000]"] ;
147 -> 148 ;
149 [label="evening <= 0.5\nentropy = 0.7\nsamples = 120\nvalue = [184, 900]"] ;
148 -> 149 ;
150 [label="Abdominal <= 0.5\nentropy = 0.6\nsamples = 115\nvalue = [172, 900]"] ;
149 -> 150 ;
151 [label="bag <= 0.5\nentropy = 0.6\nsamples = 110\nvalue = [163, 900]"] ;
150 -> 151 ;
152 [label="left hemicolectomy <= 0.5\nentropy = 0.6\nsamples = 100\nvalue = [144, 900]"] ;
151 -> 152 ;
153 [label="HEPATICOJEJUNOSTOMY <= 0.5\nentropy = 0.6\nsamples = 98\nvalue = [139, 900]"] ;
152 -> 153 ;
154 [label="meropenem <= 0.5\nentropy = 0.6\nsamples = 97\nvalue = [137, 900]"] ;
153 -> 154 ;
155 [label="temp <= 97.5\nentropy = 0.6\nsamples = 95\nvalue = [136, 800]"] ;
154 -> 155 ;
156 [label="entropy = 0.0\nsamples = 6\nvalue = [11, 0]"] ;
155 -> 156 ;
157 [label="weight <= 53.2\nentropy = 0.6\nsamples = 89\nvalue = [125, 800]"] ;
155 -> 157 ;
158 [label="entropy = 0.0\nsamples = 10\nvalue = [17, 0]"] ;
157 -> 158 ;
159 [label="stoma <= 99.0\nentropy = 0.5\nsamples = 79\nvalue = [108, 800]"] ;
157 -> 159 ;
160 [label="entropy = 0.0\nsamples = 2\nvalue = [4, 0]"] ;
159 -> 160 ;
161 [label="GB <= 0.5\nentropy = 0.5\nsamples = 77\nvalue = [104, 800]"] ;
159 -> 161 ;
162 [label="patient <= 0.5\nentropy = 0.5\nsamples = 73\nvalue = [97, 800]"] ;
161 -> 162 ;
163 [label="weight <= 75.5\nentropy = 0.5\nsamples = 67\nvalue = [87, 800]"] ;
162 -> 163 ;
164 [label="gm <= 0.5\nentropy = 0.6\nsamples = 51\nvalue = [70, 450]"] ;
163 -> 164 ;
165 [label="closure <= 0.5\nentropy = 0.5\nsamples = 47\nvalue = [64, 450]"] ;
164 -> 165 ;
166 [label="Na <= 0.5\nentropy = 0.5\nsamples = 40\nvalue = [55, 450]"] ;
165 -> 166 ;
167 [label="hb <= 0.5\nentropy = 0.6\nsamples = 39\nvalue = [55, 350]"] ;
166 -> 167 ;
168 [label="VOMIT <= 0.5\nentropy = 0.5\nsamples = 33\nvalue = [47, 350]"] ;
167 -> 168 ;
169 [label="air <= 0.5\nentropy = 0.6\nsamples = 32\nvalue = [47, 300]"] ;
168 -> 169 ;
170 [label="stricture <= 0.5\nentropy = 0.9\nsamples = 26\nvalue = [41, 100]"] ;
169 -> 170 ;
171 [label="yes <= 0.5\nentropy = 0.8\nsamples = 24\nvalue = [36, 100]"] ;
170 -> 171 ;
172 [label="oral <= 0.5\nentropy = 0.8\nsamples = 23\nvalue = [33, 100]"] ;
171 -> 172 ;
173 [label="TLC <= 0.5\nentropy = 0.6\nsamples = 12\nvalue = [15, 100]"] ;
172 -> 173 ;
174 [label="normal <= 0.5\nentropy = 0.5\nsamples = 11\nvalue = [13, 100]"] ;
173 -> 174 ;
175 [label="right <= 0.5\nentropy = 0.4\nsamples = 9\nvalue = [10, 100]"] ;
174 -> 175 ;
176 [label="biopsy <= 0.5\nentropy = 0.4\nsamples = 8\nvalue = [9, 100]"] ;
175 -> 176 ;
177 [label="CBC <= 0.5\nentropy = 0.4\nsamples = 7\nvalue = [8, 100]"] ;
176 -> 177 ;
178 [label="hr <= 0.5\nentropy = 0.2\nsamples = 5\nvalue = [4, 100]"] ;
177 -> 178 ;
179 [label="Incisional hernia <= 0.5\nentropy = 0.4\nsamples = 4\nvalue = [4, 50]"] ;
178 -> 179 ;
180 [label="entropy = 0.0\nsamples = 2\nvalue = [2, 0]"] ;
179 -> 180 ;
181 [label="Incisional Hernia <= 0.5\nentropy = 0.2\nsamples = 2\nvalue = [2, 50]"] ;
179 -> 181 ;
182 [label="entropy = 0.0\nsamples = 1\nvalue = [2, 0]"] ;
181 -> 182 ;
183 [label="entropy = 0.0\nsamples = 1\nvalue = [0, 50]"] ;
181 -> 183 ;
184 [label="entropy = 0.0\nsamples = 1\nvalue = [0, 50]"] ;
178 -> 184 ;
185 [label="entropy = 0.0\nsamples = 2\nvalue = [4, 0]"] ;
177 -> 185 ;
186 [label="entropy = 0.0\nsamples = 1\nvalue = [1, 0]"] ;
176 -> 186 ;
187 [label="entropy = 0.0\nsamples = 1\nvalue = [1, 0]"] ;
175 -> 187 ;
188 [label="entropy = 0.0\nsamples = 2\nvalue = [3, 0]"] ;
174 -> 188 ;
189 [label="entropy = 0.0\nsamples = 1\nvalue = [2, 0]"] ;
173 -> 189 ;
190 [label="entropy = 0.0\nsamples = 11\nvalue = [18, 0]"] ;
172 -> 190 ;
191 [label="entropy = 0.0\nsamples = 1\nvalue = [3, 0]"] ;
171 -> 191 ;
192 [label="entropy = 0.0\nsamples = 2\nvalue = [5, 0]"] ;
170 -> 192 ;
193 [label="abdominal <= 0.5\nentropy = 0.2\nsamples = 6\nvalue = [6, 200]"] ;
169 -> 193 ;
194 [label="DVT <= 0.5\nentropy = 0.2\nsamples = 4\nvalue = [4, 150]"] ;
193 -> 194 ;
195 [label="blood transfusion <= 0.5\nentropy = 0.2\nsamples = 3\nvalue = [4, 100]"] ;
194 -> 195 ;
196 [label="continuous <= 0.5\nentropy = 0.1\nsamples = 2\nvalue = [2, 100]"] ;
195 -> 196 ;
197 [label="entropy = 0.0\nsamples = 1\nvalue = [2, 0]"] ;
196 -> 197 ;
198 [label="entropy = 0.0\nsamples = 1\nvalue = [0, 100]"] ;
196 -> 198 ;
199 [label="entropy = 0.0\nsamples = 1\nvalue = [2, 0]"] ;
195 -> 199 ;
200 [label="entropy = 0.0\nsamples = 1\nvalue = [0, 50]"] ;
194 -> 200 ;
201 [label="rectal prolapse <= 0.5\nentropy = 0.2\nsamples = 2\nvalue = [2, 50]"] ;
193 -> 201 ;
202 [label="entropy = 0.0\nsamples = 1\nvalue = [0, 50]"] ;
201 -> 202 ;
203 [label="entropy = 0.0\nsamples = 1\nvalue = [2, 0]"] ;
201 -> 203 ;
204 [label="entropy = 0.0\nsamples = 1\nvalue = [0, 50]"] ;
168 -> 204 ;
205 [label="entropy = 0.0\nsamples = 6\nvalue = [8, 0]"] ;
167 -> 205 ;
206 [label="entropy = 0.0\nsamples = 1\nvalue = [0, 100]"] ;
166 -> 206 ;
207 [label="entropy = 0.0\nsamples = 7\nvalue = [9, 0]"] ;
165 -> 207 ;
208 [label="entropy = 0.0\nsamples = 4\nvalue = [6, 0]"] ;
164 -> 208 ;
209 [label="Height <= 171.5\nentropy = 0.3\nsamples = 16\nvalue = [17, 350]"] ;
163 -> 209 ;
210 [label="DI <= 0.5\nentropy = 0.2\nsamples = 13\nvalue = [11, 350]"] ;
209 -> 210 ;
211 [label="drop <= 0.5\nentropy = 0.2\nsamples = 11\nvalue = [8, 350]"] ;
210 -> 211 ;
212 [label="biopsy <= 0.5\nentropy = 0.1\nsamples = 10\nvalue = [7, 350]"] ;
211 -> 212 ;
213 [label="jejunostomy <= 0.5\nentropy = 0.1\nsamples = 9\nvalue = [4, 350]"] ;
212 -> 213 ;
214 [label="vomit <= 0.5\nentropy = 0.1\nsamples = 8\nvalue = [4, 250]"] ;
213 -> 214 ;
215 [label="umbilical hernia <= 0.5\nentropy = 0.0\nsamples = 4\nvalue = [1, 200]"] ;
214 -> 215 ;
216 [label="Height <= 167.0\nentropy = 0.1\nsamples = 3\nvalue = [1, 150]"] ;
215 -> 216 ;
217 [label="entropy = 0.0\nsamples = 1\nvalue = [1, 0]"] ;
216 -> 217 ;
218 [label="entropy = 0.0\nsamples = 2\nvalue = [0, 150]"] ;
216 -> 218 ;
219 [label="entropy = 0.0\nsamples = 1\nvalue = [0, 50]"] ;
215 -> 219 ;
220 [label="Liquid <= 0.5\nentropy = 0.3\nsamples = 4\nvalue = [3, 50]"] ;
214 -> 220 ;
221 [label="entropy = 0.0\nsamples = 3\nvalue = [3, 0]"] ;
220 -> 221 ;
222 [label="entropy = 0.0\nsamples = 1\nvalue = [0, 50]"] ;
220 -> 222 ;
223 [label="entropy = 0.0\nsamples = 1\nvalue = [0, 100]"] ;
213 -> 223 ;
224 [label="entropy = 0.0\nsamples = 1\nvalue = [3, 0]"] ;
212 -> 224 ;
225 [label="entropy = 0.0\nsamples = 1\nvalue = [1, 0]"] ;
211 -> 225 ;
226 [label="entropy = 0.0\nsamples = 2\nvalue = [3, 0]"] ;
210 -> 226 ;
227 [label="entropy = 0.0\nsamples = 3\nvalue = [6, 0]"] ;
209 -> 227 ;
228 [label="entropy = 0.0\nsamples = 6\nvalue = [10, 0]"] ;
162 -> 228 ;
229 [label="entropy = 0.0\nsamples = 4\nvalue = [7, 0]"] ;
161 -> 229 ;
230 [label="distal pancreatectomy <= 0.5\nentropy = 0.1\nsamples = 2\nvalue = [1, 100]"] ;
154 -> 230 ;
231 [label="entropy = 0.0\nsamples = 1\nvalue = [0, 100]"] ;
230 -> 231 ;
232 [label="entropy = 0.0\nsamples = 1\nvalue = [1, 0]"] ;
230 -> 232 ;
233 [label="entropy = 0.0\nsamples = 1\nvalue = [2, 0]"] ;
153 -> 233 ;
234 [label="entropy = 0.0\nsamples = 2\nvalue = [5, 0]"] ;
152 -> 234 ;
235 [label="entropy = 0.0\nsamples = 10\nvalue = [19, 0]"] ;
151 -> 235 ;
236 [label="entropy = 0.0\nsamples = 5\nvalue = [9, 0]"] ;
150 -> 236 ;
237 [label="entropy = 0.0\nsamples = 5\nvalue = [12, 0]"] ;
149 -> 237 ;
238 [label="Fever <= 0.5\nentropy = 0.3\nsamples = 5\nvalue = [6, 100]"] ;
148 -> 238 ;
239 [label="entropy = 0.0\nsamples = 4\nvalue = [6, 0]"] ;
238 -> 239 ;
240 [label="entropy = 0.0\nsamples = 1\nvalue = [0, 100]"] ;
238 -> 240 ;
241 [label="entropy = 0.0\nsamples = 8\nvalue = [11, 0]"] ;
147 -> 241 ;
242 [label="Normal <= 0.5\nentropy = 0.3\nsamples = 21\nvalue = [19, 400]"] ;
146 -> 242 ;
243 [label="night <= 0.5\nentropy = 0.2\nsamples = 19\nvalue = [17, 400]"] ;
242 -> 243 ;
244 [label="ILEOSTOMY <= 0.5\nentropy = 0.2\nsamples = 15\nvalue = [11, 400]"] ;
243 -> 244 ;
245 [label="black <= 0.5\nentropy = 0.2\nsamples = 14\nvalue = [9, 400]"] ;
244 -> 245 ;
246 [label="SERUM_CALCIUM <= 8.3\nentropy = 0.1\nsamples = 13\nvalue = [8, 400]"] ;
245 -> 246 ;
247 [label="IN <= 0.5\nentropy = 0.1\nsamples = 12\nvalue = [7, 400]"] ;
246 -> 247 ;
248 [label="pulse <= 86.0\nentropy = 0.2\nsamples = 11\nvalue = [7, 300]"] ;
247 -> 248 ;
249 [label="entropy = 0.0\nsamples = 2\nvalue = [3, 0]"] ;
248 -> 249 ;
250 [label="pt <= 0.5\nentropy = 0.1\nsamples = 9\nvalue = [4, 300]"] ;
248 -> 250 ;
251 [label="Blood transfusion <= 0.5\nentropy = 0.2\nsamples = 7\nvalue = [4, 150]"] ;
250 -> 251 ;
252 [label="ileostomy <= 0.5\nentropy = 0.1\nsamples = 6\nvalue = [3, 150]"] ;
251 -> 252 ;
253 [label="tube <= 0.5\nentropy = 0.1\nsamples = 5\nvalue = [2, 150]"] ;
252 -> 253 ;
254 [label="Hb <= 0.5\nentropy = 0.1\nsamples = 4\nvalue = [1, 150]"] ;
253 -> 254 ;
255 [label="entropy = 0.0\nsamples = 2\nvalue = [0, 100]"] ;
254 -> 255 ;
256 [label="Nausea <= 0.5\nentropy = 0.1\nsamples = 2\nvalue = [1, 50]"] ;
254 -> 256 ;
257 [label="entropy = 0.0\nsamples = 1\nvalue = [0, 50]"] ;
256 -> 257 ;
258 [label="entropy = 0.0\nsamples = 1\nvalue = [1, 0]"] ;
256 -> 258 ;
259 [label="entropy = 0.0\nsamples = 1\nvalue = [1, 0]"] ;
253 -> 259 ;
260 [label="entropy = 0.0\nsamples = 1\nvalue = [1, 0]"] ;
252 -> 260 ;
261 [label="entropy = 0.0\nsamples = 1\nvalue = [1, 0]"] ;
251 -> 261 ;
262 [label="entropy = 0.0\nsamples = 2\nvalue = [0, 150]"] ;
250 -> 262 ;
263 [label="entropy = 0.0\nsamples = 1\nvalue = [0, 100]"] ;
247 -> 263 ;
264 [label="entropy = 0.0\nsamples = 1\nvalue = [1, 0]"] ;
246 -> 264 ;
265 [label="entropy = 0.0\nsamples = 1\nvalue = [1, 0]"] ;
245 -> 265 ;
266 [label="entropy = 0.0\nsamples = 1\nvalue = [2, 0]"] ;
244 -> 266 ;
267 [label="entropy = 0.0\nsamples = 4\nvalue = [6, 0]"] ;
243 -> 267 ;
268 [label="entropy = 0.0\nsamples = 2\nvalue = [2, 0]"] ;
242 -> 268 ;
269 [label="entropy = 0.0\nsamples = 7\nvalue = [14, 0]"] ;
143 -> 269 ;
270 [label="entropy = 0.0\nsamples = 3\nvalue = [5, 0]"] ;
142 -> 270 ;
271 [label="DI <= 0.5\nentropy = 0.0\nsamples = 2\nvalue = [1, 200]"] ;
79 -> 271 ;
272 [label="entropy = 0.0\nsamples = 1\nvalue = [1, 0]"] ;
271 -> 272 ;
273 [label="entropy = 0.0\nsamples = 1\nvalue = [0, 200]"] ;
271 -> 273 ;
274 [label="closure <= 0.5\nentropy = 0.8\nsamples = 40\nvalue = [53, 150]"] ;
78 -> 274 ;
275 [label="urine <= 350.0\nentropy = 0.7\nsamples = 31\nvalue = [40, 150]"] ;
274 -> 275 ;
276 [label="entropy = 0.0\nsamples = 3\nvalue = [5, 0]"] ;
275 -> 276 ;
277 [label="weight <= 73.5\nentropy = 0.7\nsamples = 28\nvalue = [35, 150]"] ;
275 -> 277 ;
278 [label="entropy = 0.0\nsamples = 22\nvalue = [30, 0]"] ;
277 -> 278 ;
279 [label="foley <= 0.5\nentropy = 0.2\nsamples = 6\nvalue = [5, 150]"] ;
277 -> 279 ;
280 [label="Hb <= 0.5\nentropy = 0.1\nsamples = 4\nvalue = [2, 150]"] ;
279 -> 280 ;
281 [label="entropy = 0.0\nsamples = 1\nvalue = [0, 50]"] ;
280 -> 281 ;
282 [label="black <= 0.5\nentropy = 0.1\nsamples = 3\nvalue = [2, 100]"] ;
280 -> 282 ;
283 [label="entropy = 0.0\nsamples = 2\nvalue = [0, 100]"] ;
282 -> 283 ;
284 [label="entropy = 0.0\nsamples = 1\nvalue = [2, 0]"] ;
282 -> 284 ;
285 [label="entropy = 0.0\nsamples = 2\nvalue = [3, 0]"] ;
279 -> 285 ;
286 [label="entropy = 0.0\nsamples = 9\nvalue = [13, 0]"] ;
274 -> 286 ;
287 [label="SGOT <= 39.0\nentropy = 0.1\nsamples = 10\nvalue = [9, 600]"] ;
77 -> 287 ;
288 [label="Has antibiotic prophylaxis been given within the last 60 minutes? <= 0.5\nentropy = 0.0\nsamples = 7\nvalue = [2, 600]"] ;
287 -> 288 ;
289 [label="Normal <= 0.5\nentropy = 0.0\nsamples = 5\nvalue = [1, 500]"] ;
288 -> 289 ;
290 [label="entropy = 0.0\nsamples = 4\nvalue = [0, 500]"] ;
289 -> 290 ;
291 [label="entropy = 0.0\nsamples = 1\nvalue = [1, 0]"] ;
289 -> 291 ;
292 [label="restlessness <= 0.5\nentropy = 0.1\nsamples = 2\nvalue = [1, 100]"] ;
288 -> 292 ;
293 [label="entropy = 0.0\nsamples = 1\nvalue = [1, 0]"] ;
292 -> 293 ;
294 [label="entropy = 0.0\nsamples = 1\nvalue = [0, 100]"] ;
292 -> 294 ;
295 [label="entropy = 0.0\nsamples = 3\nvalue = [7, 0]"] ;
287 -> 295 ;
296 [label="BAG <= 0.5\nentropy = 0.1\nsamples = 24\nvalue = [18, 1000]"] ;
76 -> 296 ;
297 [label="Octreotide <= 0.5\nentropy = 0.1\nsamples = 23\nvalue = [15, 1000]"] ;
296 -> 297 ;
298 [label="CBC <= 0.5\nentropy = 0.1\nsamples = 22\nvalue = [14, 1000]"] ;
297 -> 298 ;
299 [label="Phosphorous Test <= 3.0\nentropy = 0.1\nsamples = 20\nvalue = [11, 1000]"] ;
298 -> 299 ;
300 [label="entropy = 0.0\nsamples = 4\nvalue = [0, 400]"] ;
299 -> 300 ;
301 [label="night <= 0.5\nentropy = 0.1\nsamples = 16\nvalue = [11, 600]"] ;
299 -> 301 ;
302 [label="foley <= 0.5\nentropy = 0.3\nsamples = 13\nvalue = [11, 200]"] ;
301 -> 302 ;
303 [label="SGOT <= 22.5\nentropy = 0.3\nsamples = 12\nvalue = [9, 200]"] ;
302 -> 303 ;
304 [label="entropy = 0.0\nsamples = 2\nvalue = [2, 0]"] ;
303 -> 304 ;
305 [label="surgery <= 0.5\nentropy = 0.2\nsamples = 10\nvalue = [7, 200]"] ;
303 -> 305 ;
306 [label="PT <= 0.5\nentropy = 0.2\nsamples = 9\nvalue = [6, 200]"] ;
305 -> 306 ;
307 [label="Ca <= 0.5\nentropy = 0.3\nsamples = 8\nvalue = [6, 100]"] ;
306 -> 307 ;
308 [label="Cxr <= 0.5\nentropy = 0.5\nsamples = 7\nvalue = [6, 50]"] ;
307 -> 308 ;
309 [label="unit <= 0.5\nentropy = 0.4\nsamples = 6\nvalue = [5, 50]"] ;
308 -> 309 ;
310 [label="ambulation <= 0.5\nentropy = 0.4\nsamples = 5\nvalue = [4, 50]"] ;
309 -> 310 ;
311 [label="flatus <= 0.5\nentropy = 0.3\nsamples = 4\nvalue = [3, 50]"] ;
310 -> 311 ;
312 [label="temp <= 97.5\nentropy = 0.1\nsamples = 2\nvalue = [1, 50]"] ;
311 -> 312 ;
313 [label="entropy = 0.0\nsamples = 1\nvalue = [0, 50]"] ;
312 -> 313 ;
314 [label="entropy = 0.0\nsamples = 1\nvalue = [1, 0]"] ;
312 -> 314 ;
315 [label="entropy = 0.0\nsamples = 2\nvalue = [2, 0]"] ;
311 -> 315 ;
316 [label="entropy = 0.0\nsamples = 1\nvalue = [1, 0]"] ;
310 -> 316 ;
317 [label="entropy = 0.0\nsamples = 1\nvalue = [1, 0]"] ;
309 -> 317 ;
318 [label="entropy = 0.0\nsamples = 1\nvalue = [1, 0]"] ;
308 -> 318 ;
319 [label="entropy = 0.0\nsamples = 1\nvalue = [0, 50]"] ;
307 -> 319 ;
320 [label="entropy = 0.0\nsamples = 1\nvalue = [0, 100]"] ;
306 -> 320 ;
321 [label="entropy = 0.0\nsamples = 1\nvalue = [1, 0]"] ;
305 -> 321 ;
322 [label="entropy = 0.0\nsamples = 1\nvalue = [2, 0]"] ;
302 -> 322 ;
323 [label="entropy = 0.0\nsamples = 3\nvalue = [0, 400]"] ;
301 -> 323 ;
324 [label="entropy = 0.0\nsamples = 2\nvalue = [3, 0]"] ;
298 -> 324 ;
325 [label="entropy = 0.0\nsamples = 1\nvalue = [1, 0]"] ;
297 -> 325 ;
326 [label="entropy = 0.0\nsamples = 1\nvalue = [3, 0]"] ;
296 -> 326 ;
327 [label="MORNING <= 0.5\nentropy = 0.1\nsamples = 10\nvalue = [6, 400]"] ;
75 -> 327 ;
328 [label="Blood transfusion <= 0.5\nentropy = 0.1\nsamples = 9\nvalue = [5, 400]"] ;
327 -> 328 ;
329 [label="nausea <= 0.5\nentropy = 0.1\nsamples = 8\nvalue = [4, 400]"] ;
328 -> 329 ;
330 [label="entropy = 0.0\nsamples = 1\nvalue = [1, 0]"] ;
329 -> 330 ;
331 [label="stool <= 0.5\nentropy = 0.1\nsamples = 7\nvalue = [3, 400]"] ;
329 -> 331 ;
332 [label="entropy = 0.0\nsamples = 1\nvalue = [1, 0]"] ;
331 -> 332 ;
333 [label="lasix <= 0.5\nentropy = 0.0\nsamples = 6\nvalue = [2, 400]"] ;
331 -> 333 ;
334 [label="vomiting <= 0.5\nentropy = 0.0\nsamples = 5\nvalue = [1, 400]"] ;
333 -> 334 ;
335 [label="entropy = 0.0\nsamples = 1\nvalue = [1, 0]"] ;
334 -> 335 ;
336 [label="entropy = 0.0\nsamples = 4\nvalue = [0, 400]"] ;
334 -> 336 ;
337 [label="entropy = 0.0\nsamples = 1\nvalue = [1, 0]"] ;
333 -> 337 ;
338 [label="entropy = 0.0\nsamples = 1\nvalue = [1, 0]"] ;
328 -> 338 ;
339 [label="entropy = 0.0\nsamples = 1\nvalue = [1, 0]"] ;
327 -> 339 ;
340 [label="entropy = 0.0\nsamples = 5\nvalue = [8, 0]"] ;
74 -> 340 ;
341 [label="entropy = 0.0\nsamples = 8\nvalue = [10, 0]"] ;
73 -> 341 ;
342 [label="entropy = 0.0\nsamples = 2\nvalue = [7, 0]"] ;
72 -> 342 ;
343 [label="entropy = 0.0\nsamples = 12\nvalue = [22, 0]"] ;
71 -> 343 ;
344 [label="entropy = 0.0\nsamples = 4\nvalue = [6, 0]"] ;
70 -> 344 ;
345 [label="entropy = 0.0\nsamples = 9\nvalue = [14, 0]"] ;
57 -> 345 ;
346 [label="entropy = 0.0\nsamples = 11\nvalue = [20, 0]"] ;
56 -> 346 ;
347 [label="entropy = 0.0\nsamples = 7\nvalue = [11, 0]"] ;
3 -> 347 ;
348 [label="entropy = 0.0\nsamples = 4\nvalue = [9, 0]"] ;
2 -> 348 ;
349 [label="entropy = 0.0\nsamples = 6\nvalue = [9, 0]"] ;
1 -> 349 ;
350 [label="entropy = 0.0\nsamples = 13\nvalue = [24, 0]"] ;
0 -> 350 [labeldistance=2.5, labelangle=-45, headlabel="False"] ;
}