digraph Tree {
node [shape=box, style="rounded", color="black", fontname=helvetica] ;
edge [fontname=helvetica] ;
0 [label="prothrombin <= 1.5\nentropy = 0.4\nsamples = 448\nvalue = [578, 6750]"] ;
1 [label="primary <= 0.5\nentropy = 0.4\nsamples = 432\nvalue = [552, 6750]"] ;
0 -> 1 [labeldistance=2.5, labelangle=45, headlabel="True"] ;
2 [label="foley <= 0.5\nentropy = 0.4\nsamples = 422\nvalue = [538, 6750]"] ;
1 -> 2 ;
3 [label="STRICTURE <= 0.5\nentropy = 0.4\nsamples = 388\nvalue = [481, 6550]"] ;
2 -> 3 ;
4 [label="Pancreatic necrosectomy <= 0.5\nentropy = 0.4\nsamples = 384\nvalue = [475, 6550]"] ;
3 -> 4 ;
5 [label="ALKALINE_PHOSPHATASE <= 296.5\nentropy = 0.3\nsamples = 375\nvalue = [459, 6550]"] ;
4 -> 5 ;
6 [label="injury <= 0.5\nentropy = 0.3\nsamples = 369\nvalue = [448, 6550]"] ;
5 -> 6 ;
7 [label="days <= 0.5\nentropy = 0.3\nsamples = 364\nvalue = [440, 6550]"] ;
6 -> 7 ;
8 [label="heparin <= 0.5\nentropy = 0.3\nsamples = 354\nvalue = [425, 6550]"] ;
7 -> 8 ;
9 [label="UREA <= 5.7\nentropy = 0.3\nsamples = 329\nvalue = [385, 6450]"] ;
8 -> 9 ;
10 [label="entropy = 0.0\nsamples = 10\nvalue = [20, 0]"] ;
9 -> 10 ;
11 [label="restlessness <= 0.5\nentropy = 0.3\nsamples = 319\nvalue = [365, 6450]"] ;
9 -> 11 ;
12 [label="bolus <= 0.5\nentropy = 0.3\nsamples = 317\nvalue = [365, 6150]"] ;
11 -> 12 ;
13 [label="hemoglobin <= 9.4\nentropy = 0.3\nsamples = 312\nvalue = [357, 6150]"] ;
12 -> 13 ;
14 [label="SERUM_POTASSIUM <= 3.6\nentropy = 0.9\nsamples = 13\nvalue = [20, 50]"] ;
13 -> 14 ;
15 [label="splenectomy <= 0.5\nentropy = 0.1\nsamples = 2\nvalue = [1, 50]"] ;
14 -> 15 ;
16 [label="entropy = 0.0\nsamples = 1\nvalue = [0, 50]"] ;
15 -> 16 ;
17 [label="entropy = 0.0\nsamples = 1\nvalue = [1, 0]"] ;
15 -> 17 ;
18 [label="entropy = 0.0\nsamples = 11\nvalue = [19, 0]"] ;
14 -> 18 ;
19 [label="bad <= 0.5\nentropy = 0.3\nsamples = 299\nvalue = [337, 6100]"] ;
13 -> 19 ;
20 [label="meropenem <= 0.5\nentropy = 0.3\nsamples = 296\nvalue = [333, 6100]"] ;
19 -> 20 ;
21 [label="Hepaticojejunostomy <= 0.5\nentropy = 0.3\nsamples = 286\nvalue = [326, 5650]"] ;
20 -> 21 ;
22 [label="Stable <= 0.5\nentropy = 0.3\nsamples = 285\nvalue = [323, 5650]"] ;
21 -> 22 ;
23 [label="PR <= 0.5\nentropy = 0.3\nsamples = 220\nvalue = [247, 5000]"] ;
22 -> 23 ;
24 [label="anterior <= 0.5\nentropy = 0.3\nsamples = 185\nvalue = [226, 3550]"] ;
23 -> 24 ;
25 [label="Albumin <= 0.5\nentropy = 0.3\nsamples = 181\nvalue = [224, 3200]"] ;
24 -> 25 ;
26 [label="cholecystectomy <= 0.5\nentropy = 0.3\nsamples = 176\nvalue = [218, 3200]"] ;
25 -> 26 ;
27 [label="wound infection <= 0.5\nentropy = 0.3\nsamples = 143\nvalue = [166, 3000]"] ;
26 -> 27 ;
28 [label="SGPT <= 26.5\nentropy = 0.3\nsamples = 141\nvalue = [166, 2850]"] ;
27 -> 28 ;
29 [label="Mild <= 0.5\nentropy = 0.3\nsamples = 137\nvalue = [166, 2550]"] ;
28 -> 29 ;
30 [label="lateral <= 0.5\nentropy = 0.4\nsamples = 135\nvalue = [166, 2350]"] ;
29 -> 30 ;
31 [label="Bag <= 0.5\nentropy = 0.3\nsamples = 133\nvalue = [163, 2350]"] ;
30 -> 31 ;
32 [label="RTA <= 0.5\nentropy = 0.4\nsamples = 131\nvalue = [163, 2200]"] ;
31 -> 32 ;
33 [label="clean <= 0.5\nentropy = 0.3\nsamples = 82\nvalue = [98, 1750]"] ;
32 -> 33 ;
34 [label="blood transfusion <= 0.5\nentropy = 0.3\nsamples = 81\nvalue = [94, 1750]"] ;
33 -> 34 ;
35 [label="Cholecystectomy <= 0.5\nentropy = 0.3\nsamples = 75\nvalue = [85, 1750]"] ;
34 -> 35 ;
36 [label="WBC <= 12700.0\nentropy = 0.3\nsamples = 73\nvalue = [85, 1500]"] ;
35 -> 36 ;
37 [label="SOFT DIET <= 0.5\nentropy = 0.3\nsamples = 70\nvalue = [85, 1350]"] ;
36 -> 37 ;
38 [label="antibiotics <= 0.5\nentropy = 0.3\nsamples = 66\nvalue = [79, 1350]"] ;
37 -> 38 ;
39 [label="Dobutamine stress echo <= 0.5\nentropy = 0.3\nsamples = 64\nvalue = [79, 1200]"] ;
38 -> 39 ;
40 [label="head <= 0.5\nentropy = 0.4\nsamples = 63\nvalue = [79, 1000]"] ;
39 -> 40 ;
41 [label="Liquid <= 0.5\nentropy = 0.4\nsamples = 62\nvalue = [79, 850]"] ;
40 -> 41 ;
42 [label="purulent <= 0.5\nentropy = 0.4\nsamples = 59\nvalue = [74, 850]"] ;
41 -> 42 ;
43 [label="LIQUID <= 0.5\nentropy = 0.4\nsamples = 56\nvalue = [69, 850]"] ;
42 -> 43 ;
44 [label="IV FLUIDS <= 0.5\nentropy = 0.4\nsamples = 55\nvalue = [69, 800]"] ;
43 -> 44 ;
45 [label="tube <= 0.5\nentropy = 0.4\nsamples = 53\nvalue = [65, 800]"] ;
44 -> 45 ;
46 [label="varices <= 0.5\nentropy = 0.4\nsamples = 51\nvalue = [61, 800]"] ;
45 -> 46 ;
47 [label="liquid <= 0.5\nentropy = 0.4\nsamples = 50\nvalue = [59, 800]"] ;
46 -> 47 ;
48 [label="rt <= 52.5\nentropy = 0.3\nsamples = 39\nvalue = [42, 800]"] ;
47 -> 48 ;
49 [label="oophorectomy <= 0.5\nentropy = 0.1\nsamples = 5\nvalue = [2, 200]"] ;
48 -> 49 ;
50 [label="Height <= 169.5\nentropy = 0.0\nsamples = 4\nvalue = [1, 200]"] ;
49 -> 50 ;
51 [label="entropy = 0.0\nsamples = 2\nvalue = [0, 150]"] ;
50 -> 51 ;
52 [label="urine <= 1100.0\nentropy = 0.1\nsamples = 2\nvalue = [1, 50]"] ;
50 -> 52 ;
53 [label="entropy = 0.0\nsamples = 1\nvalue = [1, 0]"] ;
52 -> 53 ;
54 [label="entropy = 0.0\nsamples = 1\nvalue = [0, 50]"] ;
52 -> 54 ;
55 [label="entropy = 0.0\nsamples = 1\nvalue = [1, 0]"] ;
49 -> 55 ;
56 [label="appendicectomy <= 0.5\nentropy = 0.3\nsamples = 34\nvalue = [40, 600]"] ;
48 -> 56 ;
57 [label="Nausea <= 0.5\nentropy = 0.3\nsamples = 32\nvalue = [35, 600]"] ;
56 -> 57 ;
58 [label="pancreatic necrosectomy <= 0.5\nentropy = 0.3\nsamples = 31\nvalue = [35, 550]"] ;
57 -> 58 ;
59 [label="DIABETES <= 0.5\nentropy = 0.3\nsamples = 30\nvalue = [31, 550]"] ;
58 -> 59 ;
60 [label="Tachycardia <= 0.5\nentropy = 0.3\nsamples = 29\nvalue = [29, 550]"] ;
59 -> 60 ;
61 [label="pt <= 0.5\nentropy = 0.3\nsamples = 26\nvalue = [26, 550]"] ;
60 -> 61 ;
62 [label="Gastrograffin <= 0.5\nentropy = 0.3\nsamples = 24\nvalue = [24, 550]"] ;
61 -> 62 ;
63 [label="hourly <= 0.5\nentropy = 0.3\nsamples = 23\nvalue = [24, 450]"] ;
62 -> 63 ;
64 [label="ABG <= 0.5\nentropy = 0.3\nsamples = 21\nvalue = [21, 450]"] ;
63 -> 64 ;
65 [label="Died <= 0.5\nentropy = 0.3\nsamples = 19\nvalue = [20, 350]"] ;
64 -> 65 ;
66 [label="Heparin <= 0.5\nentropy = 0.3\nsamples = 18\nvalue = [17, 350]"] ;
65 -> 66 ;
67 [label="gm <= 0.5\nentropy = 0.3\nsamples = 17\nvalue = [16, 350]"] ;
66 -> 67 ;
68 [label="CCI <= 0.5\nentropy = 0.2\nsamples = 16\nvalue = [15, 350]"] ;
67 -> 68 ;
69 [label="plastic Surgery <= 0.5\nentropy = 0.2\nsamples = 15\nvalue = [14, 350]"] ;
68 -> 69 ;
70 [label="NA <= 0.5\nentropy = 0.2\nsamples = 14\nvalue = [13, 350]"] ;
69 -> 70 ;
71 [label="DM <= 0.5\nentropy = 0.2\nsamples = 13\nvalue = [12, 350]"] ;
70 -> 71 ;
72 [label="other <= 0.5\nentropy = 0.2\nsamples = 12\nvalue = [12, 300]"] ;
71 -> 72 ;
73 [label="urine <= 305.0\nentropy = 0.3\nsamples = 11\nvalue = [12, 250]"] ;
72 -> 73 ;
74 [label="entropy = 0.0\nsamples = 1\nvalue = [0, 50]"] ;
73 -> 74 ;
75 [label="STABLE <= 0.5\nentropy = 0.3\nsamples = 10\nvalue = [12, 200]"] ;
73 -> 75 ;
76 [label="oral <= 0.5\nentropy = 0.5\nsamples = 9\nvalue = [12, 100]"] ;
75 -> 76 ;
77 [label="iv <= 0.5\nentropy = 0.4\nsamples = 7\nvalue = [9, 100]"] ;
76 -> 77 ;
78 [label="urine <= 1200.0\nentropy = 0.3\nsamples = 6\nvalue = [7, 100]"] ;
77 -> 78 ;
79 [label="pulse <= 82.0\nentropy = 0.5\nsamples = 5\nvalue = [7, 50]"] ;
78 -> 79 ;
80 [label="entropy = 0.0\nsamples = 1\nvalue = [3, 0]"] ;
79 -> 80 ;
81 [label="patient <= 0.5\nentropy = 0.4\nsamples = 4\nvalue = [4, 50]"] ;
79 -> 81 ;
82 [label="entropy = 0.0\nsamples = 3\nvalue = [4, 0]"] ;
81 -> 82 ;
83 [label="entropy = 0.0\nsamples = 1\nvalue = [0, 50]"] ;
81 -> 83 ;
84 [label="entropy = 0.0\nsamples = 1\nvalue = [0, 50]"] ;
78 -> 84 ;
85 [label="entropy = 0.0\nsamples = 1\nvalue = [2, 0]"] ;
77 -> 85 ;
86 [label="entropy = 0.0\nsamples = 2\nvalue = [3, 0]"] ;
76 -> 86 ;
87 [label="entropy = 0.0\nsamples = 1\nvalue = [0, 100]"] ;
75 -> 87 ;
88 [label="entropy = 0.0\nsamples = 1\nvalue = [0, 50]"] ;
72 -> 88 ;
89 [label="entropy = 0.0\nsamples = 1\nvalue = [0, 50]"] ;
71 -> 89 ;
90 [label="entropy = 0.0\nsamples = 1\nvalue = [1, 0]"] ;
70 -> 90 ;
91 [label="entropy = 0.0\nsamples = 1\nvalue = [1, 0]"] ;
69 -> 91 ;
92 [label="entropy = 0.0\nsamples = 1\nvalue = [1, 0]"] ;
68 -> 92 ;
93 [label="entropy = 0.0\nsamples = 1\nvalue = [1, 0]"] ;
67 -> 93 ;
94 [label="entropy = 0.0\nsamples = 1\nvalue = [1, 0]"] ;
66 -> 94 ;
95 [label="entropy = 0.0\nsamples = 1\nvalue = [3, 0]"] ;
65 -> 95 ;
96 [label="abscess <= 0.5\nentropy = 0.1\nsamples = 2\nvalue = [1, 100]"] ;
64 -> 96 ;
97 [label="entropy = 0.0\nsamples = 1\nvalue = [1, 0]"] ;
96 -> 97 ;
98 [label="entropy = 0.0\nsamples = 1\nvalue = [0, 100]"] ;
96 -> 98 ;
99 [label="entropy = 0.0\nsamples = 2\nvalue = [3, 0]"] ;
63 -> 99 ;
100 [label="entropy = 0.0\nsamples = 1\nvalue = [0, 100]"] ;
62 -> 100 ;
101 [label="entropy = 0.0\nsamples = 2\nvalue = [2, 0]"] ;
61 -> 101 ;
102 [label="entropy = 0.0\nsamples = 3\nvalue = [3, 0]"] ;
60 -> 102 ;
103 [label="entropy = 0.0\nsamples = 1\nvalue = [2, 0]"] ;
59 -> 103 ;
104 [label="entropy = 0.0\nsamples = 1\nvalue = [4, 0]"] ;
58 -> 104 ;
105 [label="entropy = 0.0\nsamples = 1\nvalue = [0, 50]"] ;
57 -> 105 ;
106 [label="entropy = 0.0\nsamples = 2\nvalue = [5, 0]"] ;
56 -> 106 ;
107 [label="entropy = 0.0\nsamples = 11\nvalue = [17, 0]"] ;
47 -> 107 ;
108 [label="entropy = 0.0\nsamples = 1\nvalue = [2, 0]"] ;
46 -> 108 ;
109 [label="entropy = 0.0\nsamples = 2\nvalue = [4, 0]"] ;
45 -> 109 ;
110 [label="entropy = 0.0\nsamples = 2\nvalue = [4, 0]"] ;
44 -> 110 ;
111 [label="entropy = 0.0\nsamples = 1\nvalue = [0, 50]"] ;
43 -> 111 ;
112 [label="entropy = 0.0\nsamples = 3\nvalue = [5, 0]"] ;
42 -> 112 ;
113 [label="entropy = 0.0\nsamples = 3\nvalue = [5, 0]"] ;
41 -> 113 ;
114 [label="entropy = 0.0\nsamples = 1\nvalue = [0, 150]"] ;
40 -> 114 ;
115 [label="entropy = 0.0\nsamples = 1\nvalue = [0, 200]"] ;
39 -> 115 ;
116 [label="entropy = 0.0\nsamples = 2\nvalue = [0, 150]"] ;
38 -> 116 ;
117 [label="entropy = 0.0\nsamples = 4\nvalue = [6, 0]"] ;
37 -> 117 ;
118 [label="entropy = 0.0\nsamples = 3\nvalue = [0, 150]"] ;
36 -> 118 ;
119 [label="entropy = 0.0\nsamples = 2\nvalue = [0, 250]"] ;
35 -> 119 ;
120 [label="entropy = 0.0\nsamples = 6\nvalue = [9, 0]"] ;
34 -> 120 ;
121 [label="entropy = 0.0\nsamples = 1\nvalue = [4, 0]"] ;
33 -> 121 ;
122 [label="loperamide <= 0.5\nentropy = 0.5\nsamples = 49\nvalue = [65, 450]"] ;
32 -> 122 ;
123 [label="colitis <= 0.5\nentropy = 0.6\nsamples = 48\nvalue = [65, 350]"] ;
122 -> 123 ;
124 [label="excision <= 0.5\nentropy = 0.7\nsamples = 47\nvalue = [65, 250]"] ;
123 -> 124 ;
125 [label="pr <= 0.5\nentropy = 0.8\nsamples = 44\nvalue = [63, 200]"] ;
124 -> 125 ;
126 [label="wound <= 0.5\nentropy = 0.8\nsamples = 41\nvalue = [57, 200]"] ;
125 -> 126 ;
127 [label="Patient <= 0.5\nentropy = 0.7\nsamples = 38\nvalue = [53, 200]"] ;
126 -> 127 ;
128 [label="large <= 0.5\nentropy = 0.6\nsamples = 29\nvalue = [37, 200]"] ;
127 -> 128 ;
129 [label="IVF <= 0.5\nentropy = 0.7\nsamples = 28\nvalue = [37, 150]"] ;
128 -> 129 ;
130 [label="pt <= 0.5\nentropy = 0.6\nsamples = 19\nvalue = [23, 150]"] ;
129 -> 130 ;
131 [label="DIRECT_BILIRUBIN <= 164.1\nentropy = 0.5\nsamples = 17\nvalue = [19, 150]"] ;
130 -> 131 ;
132 [label="iv fluids <= 0.5\nentropy = 0.5\nsamples = 16\nvalue = [18, 150]"] ;
131 -> 132 ;
133 [label="Fever <= 0.5\nentropy = 0.5\nsamples = 15\nvalue = [17, 150]"] ;
132 -> 133 ;
134 [label="cough <= 0.5\nentropy = 0.4\nsamples = 14\nvalue = [15, 150]"] ;
133 -> 134 ;
135 [label="surgery <= 0.5\nentropy = 0.4\nsamples = 13\nvalue = [13, 150]"] ;
134 -> 135 ;
136 [label="purulent <= 0.5\nentropy = 0.4\nsamples = 12\nvalue = [12, 150]"] ;
135 -> 136 ;
137 [label="fever <= 0.5\nentropy = 0.3\nsamples = 11\nvalue = [10, 150]"] ;
136 -> 137 ;
138 [label="stool <= 0.5\nentropy = 0.2\nsamples = 7\nvalue = [6, 150]"] ;
137 -> 138 ;
139 [label="entropy = 0.0\nsamples = 2\nvalue = [2, 0]"] ;
138 -> 139 ;
140 [label="abdominal <= 0.5\nentropy = 0.2\nsamples = 5\nvalue = [4, 150]"] ;
138 -> 140 ;
141 [label="entropy = 0.0\nsamples = 3\nvalue = [4, 0]"] ;
140 -> 141 ;
142 [label="entropy = 0.0\nsamples = 2\nvalue = [0, 150]"] ;
140 -> 142 ;
143 [label="entropy = 0.0\nsamples = 4\nvalue = [4, 0]"] ;
137 -> 143 ;
144 [label="entropy = 0.0\nsamples = 1\nvalue = [2, 0]"] ;
136 -> 144 ;
145 [label="entropy = 0.0\nsamples = 1\nvalue = [1, 0]"] ;
135 -> 145 ;
146 [label="entropy = 0.0\nsamples = 1\nvalue = [2, 0]"] ;
134 -> 146 ;
147 [label="entropy = 0.0\nsamples = 1\nvalue = [2, 0]"] ;
133 -> 147 ;
148 [label="entropy = 0.0\nsamples = 1\nvalue = [1, 0]"] ;
132 -> 148 ;
149 [label="entropy = 0.0\nsamples = 1\nvalue = [1, 0]"] ;
131 -> 149 ;
150 [label="entropy = 0.0\nsamples = 2\nvalue = [4, 0]"] ;
130 -> 150 ;
151 [label="entropy = 0.0\nsamples = 9\nvalue = [14, 0]"] ;
129 -> 151 ;
152 [label="entropy = 0.0\nsamples = 1\nvalue = [0, 50]"] ;
128 -> 152 ;
153 [label="entropy = 0.0\nsamples = 9\nvalue = [16, 0]"] ;
127 -> 153 ;
154 [label="entropy = 0.0\nsamples = 3\nvalue = [4, 0]"] ;
126 -> 154 ;
155 [label="entropy = 0.0\nsamples = 3\nvalue = [6, 0]"] ;
125 -> 155 ;
156 [label="unit <= 0.5\nentropy = 0.2\nsamples = 3\nvalue = [2, 50]"] ;
124 -> 156 ;
157 [label="polyp <= 0.5\nentropy = 0.1\nsamples = 2\nvalue = [1, 50]"] ;
156 -> 157 ;
158 [label="entropy = 0.0\nsamples = 1\nvalue = [1, 0]"] ;
157 -> 158 ;
159 [label="entropy = 0.0\nsamples = 1\nvalue = [0, 50]"] ;
157 -> 159 ;
160 [label="entropy = 0.0\nsamples = 1\nvalue = [1, 0]"] ;
156 -> 160 ;
161 [label="entropy = 0.0\nsamples = 1\nvalue = [0, 100]"] ;
123 -> 161 ;
162 [label="entropy = 0.0\nsamples = 1\nvalue = [0, 100]"] ;
122 -> 162 ;
163 [label="entropy = 0.0\nsamples = 2\nvalue = [0, 150]"] ;
31 -> 163 ;
164 [label="entropy = 0.0\nsamples = 2\nvalue = [3, 0]"] ;
30 -> 164 ;
165 [label="entropy = 0.0\nsamples = 2\nvalue = [0, 200]"] ;
29 -> 165 ;
166 [label="entropy = 0.0\nsamples = 4\nvalue = [0, 300]"] ;
28 -> 166 ;
167 [label="entropy = 0.0\nsamples = 2\nvalue = [0, 150]"] ;
27 -> 167 ;
168 [label="AIR <= 0.5\nentropy = 0.7\nsamples = 33\nvalue = [52, 200]"] ;
26 -> 168 ;
169 [label="Abdominal pain <= 0.5\nentropy = 0.8\nsamples = 32\nvalue = [52, 150]"] ;
168 -> 169 ;
170 [label="Height <= 167.5\nentropy = 0.8\nsamples = 31\nvalue = [47, 150]"] ;
169 -> 170 ;
171 [label="repair <= 0.5\nentropy = 0.9\nsamples = 27\nvalue = [43, 100]"] ;
170 -> 171 ;
172 [label="Complications <= 0.5\nentropy = 1.0\nsamples = 26\nvalue = [43, 50]"] ;
171 -> 172 ;
173 [label="calculi <= 0.5\nentropy = 1.0\nsamples = 25\nvalue = [40, 50]"] ;
172 -> 173 ;
174 [label="entropy = 0.0\nsamples = 24\nvalue = [40, 0]"] ;
173 -> 174 ;
175 [label="entropy = 0.0\nsamples = 1\nvalue = [0, 50]"] ;
173 -> 175 ;
176 [label="entropy = 0.0\nsamples = 1\nvalue = [3, 0]"] ;
172 -> 176 ;
177 [label="entropy = 0.0\nsamples = 1\nvalue = [0, 50]"] ;
171 -> 177 ;
178 [label="vomit <= 0.5\nentropy = 0.4\nsamples = 4\nvalue = [4, 50]"] ;
170 -> 178 ;
179 [label="Left <= 0.5\nentropy = 0.2\nsamples = 2\nvalue = [2, 50]"] ;
178 -> 179 ;
180 [label="entropy = 0.0\nsamples = 1\nvalue = [0, 50]"] ;
179 -> 180 ;
181 [label="entropy = 0.0\nsamples = 1\nvalue = [2, 0]"] ;
179 -> 181 ;
182 [label="entropy = 0.0\nsamples = 2\nvalue = [2, 0]"] ;
178 -> 182 ;
183 [label="entropy = 0.0\nsamples = 1\nvalue = [5, 0]"] ;
169 -> 183 ;
184 [label="entropy = 0.0\nsamples = 1\nvalue = [0, 50]"] ;
168 -> 184 ;
185 [label="entropy = 0.0\nsamples = 5\nvalue = [6, 0]"] ;
25 -> 185 ;
186 [label="SERUM_CALCIUM <= 8.0\nentropy = 0.1\nsamples = 4\nvalue = [2, 350]"] ;
24 -> 186 ;
187 [label="entropy = 0.0\nsamples = 1\nvalue = [0, 100]"] ;
186 -> 187 ;
188 [label="soft diet <= 0.5\nentropy = 0.1\nsamples = 3\nvalue = [2, 250]"] ;
186 -> 188 ;
189 [label="purulent <= 0.5\nentropy = 0.1\nsamples = 2\nvalue = [2, 100]"] ;
188 -> 189 ;
190 [label="entropy = 0.0\nsamples = 1\nvalue = [0, 100]"] ;
189 -> 190 ;
191 [label="entropy = 0.0\nsamples = 1\nvalue = [2, 0]"] ;
189 -> 191 ;
192 [label="entropy = 0.0\nsamples = 1\nvalue = [0, 150]"] ;
188 -> 192 ;
193 [label="urine <= 700.0\nentropy = 0.1\nsamples = 35\nvalue = [21, 1450]"] ;
23 -> 193 ;
194 [label="aspirin <= 0.5\nentropy = 0.1\nsamples = 32\nvalue = [15, 1450]"] ;
193 -> 194 ;
195 [label="back <= 0.5\nentropy = 0.1\nsamples = 31\nvalue = [14, 1450]"] ;
194 -> 195 ;
196 [label="gangrene <= 0.5\nentropy = 0.1\nsamples = 30\nvalue = [12, 1450]"] ;
195 -> 196 ;
197 [label="temperature <= 0.5\nentropy = 0.1\nsamples = 29\nvalue = [11, 1450]"] ;
196 -> 197 ;
198 [label="choledochal cyst <= 0.5\nentropy = 0.1\nsamples = 28\nvalue = [10, 1450]"] ;
197 -> 198 ;
199 [label="suppository <= 0.5\nentropy = 0.0\nsamples = 26\nvalue = [8, 1450]"] ;
198 -> 199 ;
200 [label="Hr <= 0.5\nentropy = 0.0\nsamples = 23\nvalue = [6, 1400]"] ;
199 -> 200 ;
201 [label="Ca <= 0.5\nentropy = 0.0\nsamples = 22\nvalue = [5, 1400]"] ;
200 -> 201 ;
202 [label="Has antibiotic prophylaxis been given within the last 60 minutes? <= 0.5\nentropy = 0.0\nsamples = 21\nvalue = [4, 1400]"] ;
201 -> 202 ;
203 [label="Gallstones <= 0.5\nentropy = 0.0\nsamples = 18\nvalue = [2, 1350]"] ;
202 -> 203 ;
204 [label="SGPT <= 14.0\nentropy = 0.0\nsamples = 17\nvalue = [1, 1350]"] ;
203 -> 204 ;
205 [label="entropy = 0.0\nsamples = 1\nvalue = [0, 150]"] ;
204 -> 205 ;
206 [label="right <= 0.5\nentropy = 0.0\nsamples = 16\nvalue = [1, 1200]"] ;
204 -> 206 ;
207 [label="rta <= 0.5\nentropy = 0.0\nsamples = 12\nvalue = [1, 900]"] ;
206 -> 207 ;
208 [label="prothrombin <= 1.2\nentropy = 0.0\nsamples = 11\nvalue = [1, 800]"] ;
207 -> 208 ;
209 [label="entropy = 0.0\nsamples = 1\nvalue = [0, 50]"] ;
208 -> 209 ;
210 [label="cholecystitis <= 0.5\nentropy = 0.0\nsamples = 10\nvalue = [1, 750]"] ;
208 -> 210 ;
211 [label="large <= 0.5\nentropy = 0.0\nsamples = 9\nvalue = [1, 600]"] ;
210 -> 211 ;
212 [label="pr <= 0.5\nentropy = 0.0\nsamples = 8\nvalue = [1, 550]"] ;
211 -> 212 ;
213 [label="entropy = 0.0\nsamples = 6\nvalue = [0, 500]"] ;
212 -> 213 ;
214 [label="RIGHT <= 0.5\nentropy = 0.1\nsamples = 2\nvalue = [1, 50]"] ;
212 -> 214 ;
215 [label="entropy = 0.0\nsamples = 1\nvalue = [0, 50]"] ;
214 -> 215 ;
216 [label="entropy = 0.0\nsamples = 1\nvalue = [1, 0]"] ;
214 -> 216 ;
217 [label="entropy = 0.0\nsamples = 1\nvalue = [0, 50]"] ;
211 -> 217 ;
218 [label="entropy = 0.0\nsamples = 1\nvalue = [0, 150]"] ;
210 -> 218 ;
219 [label="entropy = 0.0\nsamples = 1\nvalue = [0, 100]"] ;
207 -> 219 ;
220 [label="entropy = 0.0\nsamples = 4\nvalue = [0, 300]"] ;
206 -> 220 ;
221 [label="entropy = 0.0\nsamples = 1\nvalue = [1, 0]"] ;
203 -> 221 ;
222 [label="DT <= 0.5\nentropy = 0.2\nsamples = 3\nvalue = [2, 50]"] ;
202 -> 222 ;
223 [label="liquid <= 0.5\nentropy = 0.1\nsamples = 2\nvalue = [1, 50]"] ;
222 -> 223 ;
224 [label="entropy = 0.0\nsamples = 1\nvalue = [0, 50]"] ;
223 -> 224 ;
225 [label="entropy = 0.0\nsamples = 1\nvalue = [1, 0]"] ;
223 -> 225 ;
226 [label="entropy = 0.0\nsamples = 1\nvalue = [1, 0]"] ;
222 -> 226 ;
227 [label="entropy = 0.0\nsamples = 1\nvalue = [1, 0]"] ;
201 -> 227 ;
228 [label="entropy = 0.0\nsamples = 1\nvalue = [1, 0]"] ;
200 -> 228 ;
229 [label="morning <= 0.5\nentropy = 0.2\nsamples = 3\nvalue = [2, 50]"] ;
199 -> 229 ;
230 [label="nausea <= 0.5\nentropy = 0.1\nsamples = 2\nvalue = [1, 50]"] ;
229 -> 230 ;
231 [label="entropy = 0.0\nsamples = 1\nvalue = [0, 50]"] ;
230 -> 231 ;
232 [label="entropy = 0.0\nsamples = 1\nvalue = [1, 0]"] ;
230 -> 232 ;
233 [label="entropy = 0.0\nsamples = 1\nvalue = [1, 0]"] ;
229 -> 233 ;
234 [label="entropy = 0.0\nsamples = 2\nvalue = [2, 0]"] ;
198 -> 234 ;
235 [label="entropy = 0.0\nsamples = 1\nvalue = [1, 0]"] ;
197 -> 235 ;
236 [label="entropy = 0.0\nsamples = 1\nvalue = [1, 0]"] ;
196 -> 236 ;
237 [label="entropy = 0.0\nsamples = 1\nvalue = [2, 0]"] ;
195 -> 237 ;
238 [label="entropy = 0.0\nsamples = 1\nvalue = [1, 0]"] ;
194 -> 238 ;
239 [label="entropy = 0.0\nsamples = 3\nvalue = [6, 0]"] ;
193 -> 239 ;
240 [label="rr <= 0.5\nentropy = 0.5\nsamples = 65\nvalue = [76, 650]"] ;
22 -> 240 ;
241 [label="MORNING <= 0.5\nentropy = 0.5\nsamples = 64\nvalue = [76, 550]"] ;
240 -> 241 ;
242 [label="iv <= 0.5\nentropy = 0.6\nsamples = 61\nvalue = [74, 450]"] ;
241 -> 242 ;
243 [label="small <= 0.5\nentropy = 0.7\nsamples = 58\nvalue = [73, 350]"] ;
242 -> 243 ;
244 [label="excision <= 0.5\nentropy = 0.7\nsamples = 52\nvalue = [67, 250]"] ;
243 -> 244 ;
245 [label="low <= 0.5\nentropy = 0.7\nsamples = 48\nvalue = [61, 250]"] ;
244 -> 245 ;
246 [label="gastrograffin <= 0.5\nentropy = 0.6\nsamples = 38\nvalue = [46, 250]"] ;
245 -> 246 ;
247 [label="distal pancreatectomy <= 0.5\nentropy = 0.6\nsamples = 35\nvalue = [43, 250]"] ;
246 -> 247 ;
248 [label="bag <= 0.5\nentropy = 0.6\nsamples = 33\nvalue = [40, 250]"] ;
247 -> 248 ;
249 [label="Height <= 152.5\nentropy = 0.5\nsamples = 30\nvalue = [34, 250]"] ;
248 -> 249 ;
250 [label="entropy = 0.0\nsamples = 4\nvalue = [5, 0]"] ;
249 -> 250 ;
251 [label="Height <= 161.5\nentropy = 0.5\nsamples = 26\nvalue = [29, 250]"] ;
249 -> 251 ;
252 [label="IV <= 0.5\nentropy = 0.2\nsamples = 6\nvalue = [5, 150]"] ;
251 -> 252 ;
253 [label="Conscious <= 0.5\nentropy = 0.3\nsamples = 5\nvalue = [5, 100]"] ;
252 -> 253 ;
254 [label="soft diet <= 0.5\nentropy = 0.2\nsamples = 4\nvalue = [3, 100]"] ;
253 -> 254 ;
255 [label="fever <= 0.5\nentropy = 0.2\nsamples = 2\nvalue = [2, 50]"] ;
254 -> 255 ;
256 [label="entropy = 0.0\nsamples = 1\nvalue = [0, 50]"] ;
255 -> 256 ;
257 [label="entropy = 0.0\nsamples = 1\nvalue = [2, 0]"] ;
255 -> 257 ;
258 [label="Height <= 157.5\nentropy = 0.1\nsamples = 2\nvalue = [1, 50]"] ;
254 -> 258 ;
259 [label="entropy = 0.0\nsamples = 1\nvalue = [1, 0]"] ;
258 -> 259 ;
260 [label="entropy = 0.0\nsamples = 1\nvalue = [0, 50]"] ;
258 -> 260 ;
261 [label="entropy = 0.0\nsamples = 1\nvalue = [2, 0]"] ;
253 -> 261 ;
262 [label="entropy = 0.0\nsamples = 1\nvalue = [0, 50]"] ;
252 -> 262 ;
263 [label="nausea <= 0.5\nentropy = 0.7\nsamples = 20\nvalue = [24, 100]"] ;
251 -> 263 ;
264 [label="PR <= 0.5\nentropy = 0.5\nsamples = 11\nvalue = [13, 100]"] ;
263 -> 264 ;
265 [label="rt <= 162.5\nentropy = 0.4\nsamples = 9\nvalue = [9, 100]"] ;
264 -> 265 ;
266 [label="soft diet <= 0.5\nentropy = 0.6\nsamples = 8\nvalue = [9, 50]"] ;
265 -> 266 ;
267 [label="HJ <= 0.5\nentropy = 0.4\nsamples = 5\nvalue = [5, 50]"] ;
266 -> 267 ;
268 [label="abdominal distension <= 0.5\nentropy = 0.4\nsamples = 4\nvalue = [4, 50]"] ;
267 -> 268 ;
269 [label="Hb <= 0.5\nentropy = 0.3\nsamples = 3\nvalue = [3, 50]"] ;
268 -> 269 ;
270 [label="Height <= 170.5\nentropy = 0.1\nsamples = 2\nvalue = [1, 50]"] ;
269 -> 270 ;
271 [label="entropy = 0.0\nsamples = 1\nvalue = [1, 0]"] ;
270 -> 271 ;
272 [label="entropy = 0.0\nsamples = 1\nvalue = [0, 50]"] ;
270 -> 272 ;
273 [label="entropy = 0.0\nsamples = 1\nvalue = [2, 0]"] ;
269 -> 273 ;
274 [label="entropy = 0.0\nsamples = 1\nvalue = [1, 0]"] ;
268 -> 274 ;
275 [label="entropy = 0.0\nsamples = 1\nvalue = [1, 0]"] ;
267 -> 275 ;
276 [label="entropy = 0.0\nsamples = 3\nvalue = [4, 0]"] ;
266 -> 276 ;
277 [label="entropy = 0.0\nsamples = 1\nvalue = [0, 50]"] ;
265 -> 277 ;
278 [label="entropy = 0.0\nsamples = 2\nvalue = [4, 0]"] ;
264 -> 278 ;
279 [label="entropy = 0.0\nsamples = 9\nvalue = [11, 0]"] ;
263 -> 279 ;
280 [label="entropy = 0.0\nsamples = 3\nvalue = [6, 0]"] ;
248 -> 280 ;
281 [label="entropy = 0.0\nsamples = 2\nvalue = [3, 0]"] ;
247 -> 281 ;
282 [label="entropy = 0.0\nsamples = 3\nvalue = [3, 0]"] ;
246 -> 282 ;
283 [label="entropy = 0.0\nsamples = 10\nvalue = [15, 0]"] ;
245 -> 283 ;
284 [label="entropy = 0.0\nsamples = 4\nvalue = [6, 0]"] ;
244 -> 284 ;
285 [label="Hb <= 0.5\nentropy = 0.3\nsamples = 6\nvalue = [6, 100]"] ;
243 -> 285 ;
286 [label="stoma <= 99.5\nentropy = 0.1\nsamples = 2\nvalue = [1, 100]"] ;
285 -> 286 ;
287 [label="entropy = 0.0\nsamples = 1\nvalue = [0, 100]"] ;
286 -> 287 ;
288 [label="entropy = 0.0\nsamples = 1\nvalue = [1, 0]"] ;
286 -> 288 ;
289 [label="entropy = 0.0\nsamples = 4\nvalue = [5, 0]"] ;
285 -> 289 ;
290 [label="no <= 0.5\nentropy = 0.1\nsamples = 3\nvalue = [1, 100]"] ;
242 -> 290 ;
291 [label="nausea <= 0.5\nentropy = 0.1\nsamples = 2\nvalue = [1, 50]"] ;
290 -> 291 ;
292 [label="entropy = 0.0\nsamples = 1\nvalue = [0, 50]"] ;
291 -> 292 ;
293 [label="entropy = 0.0\nsamples = 1\nvalue = [1, 0]"] ;
291 -> 293 ;
294 [label="entropy = 0.0\nsamples = 1\nvalue = [0, 50]"] ;
290 -> 294 ;
295 [label="pain <= 0.5\nentropy = 0.1\nsamples = 3\nvalue = [2, 100]"] ;
241 -> 295 ;
296 [label="blood transfusion <= 0.5\nentropy = 0.1\nsamples = 2\nvalue = [1, 100]"] ;
295 -> 296 ;
297 [label="entropy = 0.0\nsamples = 1\nvalue = [0, 100]"] ;
296 -> 297 ;
298 [label="entropy = 0.0\nsamples = 1\nvalue = [1, 0]"] ;
296 -> 298 ;
299 [label="entropy = 0.0\nsamples = 1\nvalue = [1, 0]"] ;
295 -> 299 ;
300 [label="entropy = 0.0\nsamples = 1\nvalue = [0, 100]"] ;
240 -> 300 ;
301 [label="entropy = 0.0\nsamples = 1\nvalue = [3, 0]"] ;
21 -> 301 ;
302 [label="SERUM_SODIUM <= 141.0\nentropy = 0.1\nsamples = 10\nvalue = [7, 450]"] ;
20 -> 302 ;
303 [label="healthy <= 0.5\nentropy = 0.1\nsamples = 9\nvalue = [5, 450]"] ;
302 -> 303 ;
304 [label="PLT <= 240500.0\nentropy = 0.0\nsamples = 6\nvalue = [1, 400]"] ;
303 -> 304 ;
305 [label="entropy = 0.0\nsamples = 2\nvalue = [0, 150]"] ;
304 -> 305 ;
306 [label="RTA <= 0.5\nentropy = 0.0\nsamples = 4\nvalue = [1, 250]"] ;
304 -> 306 ;
307 [label="entropy = 0.0\nsamples = 1\nvalue = [1, 0]"] ;
306 -> 307 ;
308 [label="entropy = 0.0\nsamples = 3\nvalue = [0, 250]"] ;
306 -> 308 ;
309 [label="surgery <= 0.5\nentropy = 0.4\nsamples = 3\nvalue = [4, 50]"] ;
303 -> 309 ;
310 [label="entropy = 0.0\nsamples = 2\nvalue = [4, 0]"] ;
309 -> 310 ;
311 [label="entropy = 0.0\nsamples = 1\nvalue = [0, 50]"] ;
309 -> 311 ;
312 [label="entropy = 0.0\nsamples = 1\nvalue = [2, 0]"] ;
302 -> 312 ;
313 [label="entropy = 0.0\nsamples = 3\nvalue = [4, 0]"] ;
19 -> 313 ;
314 [label="entropy = 0.0\nsamples = 5\nvalue = [8, 0]"] ;
12 -> 314 ;
315 [label="entropy = 0.0\nsamples = 2\nvalue = [0, 300]"] ;
11 -> 315 ;
316 [label="Phosphorous Test <= 3.1\nentropy = 0.9\nsamples = 25\nvalue = [40, 100]"] ;
8 -> 316 ;
317 [label="high <= 0.5\nentropy = 0.1\nsamples = 2\nvalue = [1, 100]"] ;
316 -> 317 ;
318 [label="entropy = 0.0\nsamples = 1\nvalue = [1, 0]"] ;
317 -> 318 ;
319 [label="entropy = 0.0\nsamples = 1\nvalue = [0, 100]"] ;
317 -> 319 ;
320 [label="entropy = 0.0\nsamples = 23\nvalue = [39, 0]"] ;
316 -> 320 ;
321 [label="entropy = 0.0\nsamples = 10\nvalue = [15, 0]"] ;
7 -> 321 ;
322 [label="entropy = 0.0\nsamples = 5\nvalue = [8, 0]"] ;
6 -> 322 ;
323 [label="entropy = 0.0\nsamples = 6\nvalue = [11, 0]"] ;
5 -> 323 ;
324 [label="entropy = 0.0\nsamples = 9\nvalue = [16, 0]"] ;
4 -> 324 ;
325 [label="entropy = 0.0\nsamples = 4\nvalue = [6, 0]"] ;
3 -> 325 ;
326 [label="WBC <= 8950.0\nentropy = 0.8\nsamples = 34\nvalue = [57, 200]"] ;
2 -> 326 ;
327 [label="PR <= 0.5\nentropy = 0.3\nsamples = 2\nvalue = [5, 100]"] ;
326 -> 327 ;
328 [label="entropy = 0.0\nsamples = 1\nvalue = [5, 0]"] ;
327 -> 328 ;
329 [label="entropy = 0.0\nsamples = 1\nvalue = [0, 100]"] ;
327 -> 329 ;
330 [label="Upper GI endoscopy <= 0.5\nentropy = 0.9\nsamples = 32\nvalue = [52, 100]"] ;
326 -> 330 ;
331 [label="entropy = 0.0\nsamples = 31\nvalue = [52, 0]"] ;
330 -> 331 ;
332 [label="entropy = 0.0\nsamples = 1\nvalue = [0, 100]"] ;
330 -> 332 ;
333 [label="entropy = 0.0\nsamples = 10\nvalue = [14, 0]"] ;
1 -> 333 ;
334 [label="entropy = 0.0\nsamples = 16\nvalue = [26, 0]"] ;
0 -> 334 [labeldistance=2.5, labelangle=-45, headlabel="False"] ;
}