digraph Tree {
node [shape=box, style="rounded", color="black", fontname=helvetica] ;
edge [fontname=helvetica] ;
0 [label="SERUM_GGT <= 16.5\nentropy = 0.4\nsamples = 448\nvalue = [581, 6600]"] ;
1 [label="entropy = 0.0\nsamples = 13\nvalue = [25, 0]"] ;
0 -> 1 [labeldistance=2.5, labelangle=45, headlabel="True"] ;
2 [label="min <= 0.5\nentropy = 0.4\nsamples = 435\nvalue = [556, 6600]"] ;
0 -> 2 [labeldistance=2.5, labelangle=-45, headlabel="False"] ;
3 [label="pulse <= 287.5\nentropy = 0.2\nsamples = 123\nvalue = [123, 3200]"] ;
2 -> 3 ;
4 [label="Has antibiotic prophylaxis been given within the last 60 minutes? <= 0.5\nentropy = 0.3\nsamples = 110\nvalue = [119, 2200]"] ;
3 -> 4 ;
5 [label="incisional hernia <= 0.5\nentropy = 0.3\nsamples = 106\nvalue = [114, 2200]"] ;
4 -> 5 ;
6 [label="stomach <= 0.5\nentropy = 0.3\nsamples = 101\nvalue = [107, 2200]"] ;
5 -> 6 ;
7 [label="possible <= 0.5\nentropy = 0.3\nsamples = 99\nvalue = [104, 2200]"] ;
6 -> 7 ;
8 [label="PR <= 0.5\nentropy = 0.3\nsamples = 98\nvalue = [102, 2200]"] ;
7 -> 8 ;
9 [label="pancreatic necrosectomy <= 0.5\nentropy = 0.3\nsamples = 87\nvalue = [98, 1550]"] ;
8 -> 9 ;
10 [label="nausea <= 0.5\nentropy = 0.3\nsamples = 84\nvalue = [92, 1550]"] ;
9 -> 10 ;
11 [label="bd <= 0.5\nentropy = 0.2\nsamples = 43\nvalue = [38, 1250]"] ;
10 -> 11 ;
12 [label="Liquid <= 0.5\nentropy = 0.2\nsamples = 41\nvalue = [34, 1250]"] ;
11 -> 12 ;
13 [label="NA <= 0.5\nentropy = 0.2\nsamples = 39\nvalue = [32, 1250]"] ;
12 -> 13 ;
14 [label="not done <= 0.5\nentropy = 0.2\nsamples = 37\nvalue = [29, 1250]"] ;
13 -> 14 ;
15 [label="seton <= 0.5\nentropy = 0.2\nsamples = 36\nvalue = [29, 1200]"] ;
14 -> 15 ;
16 [label="male <= 0.5\nentropy = 0.2\nsamples = 35\nvalue = [29, 950]"] ;
15 -> 16 ;
17 [label="Stable <= 0.5\nentropy = 0.2\nsamples = 34\nvalue = [28, 950]"] ;
16 -> 17 ;
18 [label="angina <= 0.5\nentropy = 0.2\nsamples = 27\nvalue = [24, 700]"] ;
17 -> 18 ;
19 [label="UREA <= 10.0\nentropy = 0.2\nsamples = 26\nvalue = [24, 650]"] ;
18 -> 19 ;
20 [label="colostomy <= 0.5\nentropy = 0.2\nsamples = 24\nvalue = [20, 650]"] ;
19 -> 20 ;
21 [label="IV FLUIDS <= 0.5\nentropy = 0.2\nsamples = 22\nvalue = [17, 650]"] ;
20 -> 21 ;
22 [label="IN <= 0.5\nentropy = 0.2\nsamples = 21\nvalue = [15, 650]"] ;
21 -> 22 ;
23 [label="PLT <= 205000.0\nentropy = 0.1\nsamples = 20\nvalue = [14, 650]"] ;
22 -> 23 ;
24 [label="entropy = 0.0\nsamples = 1\nvalue = [0, 100]"] ;
23 -> 24 ;
25 [label="iv <= 0.5\nentropy = 0.2\nsamples = 19\nvalue = [14, 550]"] ;
23 -> 25 ;
26 [label="drainage <= 0.5\nentropy = 0.2\nsamples = 18\nvalue = [13, 550]"] ;
25 -> 26 ;
27 [label="cholecystectomy <= 0.5\nentropy = 0.2\nsamples = 17\nvalue = [13, 500]"] ;
26 -> 27 ;
28 [label="yes <= 0.5\nentropy = 0.1\nsamples = 15\nvalue = [11, 500]"] ;
27 -> 28 ;
29 [label="IVF <= 0.5\nentropy = 0.1\nsamples = 14\nvalue = [10, 500]"] ;
28 -> 29 ;
30 [label="stool <= 0.5\nentropy = 0.2\nsamples = 13\nvalue = [10, 450]"] ;
29 -> 30 ;
31 [label="surgery <= 0.5\nentropy = 0.2\nsamples = 10\nvalue = [9, 250]"] ;
30 -> 31 ;
32 [label="TRANSFERRED <= 0.5\nentropy = 0.2\nsamples = 8\nvalue = [7, 200]"] ;
31 -> 32 ;
33 [label="Height <= 157.5\nentropy = 0.3\nsamples = 7\nvalue = [7, 150]"] ;
32 -> 33 ;
34 [label="entropy = 0.0\nsamples = 1\nvalue = [2, 0]"] ;
33 -> 34 ;
35 [label="stable <= 0.5\nentropy = 0.2\nsamples = 6\nvalue = [5, 150]"] ;
33 -> 35 ;
36 [label="abdomen <= 0.5\nentropy = 0.1\nsamples = 4\nvalue = [2, 150]"] ;
35 -> 36 ;
37 [label="weight <= 117.5\nentropy = 0.1\nsamples = 3\nvalue = [1, 150]"] ;
36 -> 37 ;
38 [label="entropy = 0.1\nsamples = 2\nvalue = [1, 100]"] ;
37 -> 38 ;
39 [label="entropy = 0.0\nsamples = 1\nvalue = [0, 50]"] ;
37 -> 39 ;
40 [label="entropy = 0.0\nsamples = 1\nvalue = [1, 0]"] ;
36 -> 40 ;
41 [label="entropy = 0.0\nsamples = 2\nvalue = [3, 0]"] ;
35 -> 41 ;
42 [label="entropy = 0.0\nsamples = 1\nvalue = [0, 50]"] ;
32 -> 42 ;
43 [label="healthy <= 0.5\nentropy = 0.2\nsamples = 2\nvalue = [2, 50]"] ;
31 -> 43 ;
44 [label="entropy = 0.0\nsamples = 1\nvalue = [0, 50]"] ;
43 -> 44 ;
45 [label="entropy = 0.0\nsamples = 1\nvalue = [2, 0]"] ;
43 -> 45 ;
46 [label="FISTULA <= 0.5\nentropy = 0.0\nsamples = 3\nvalue = [1, 200]"] ;
30 -> 46 ;
47 [label="pain <= 0.5\nentropy = 0.1\nsamples = 2\nvalue = [1, 100]"] ;
46 -> 47 ;
48 [label="entropy = 0.0\nsamples = 1\nvalue = [1, 0]"] ;
47 -> 48 ;
49 [label="entropy = 0.0\nsamples = 1\nvalue = [0, 100]"] ;
47 -> 49 ;
50 [label="entropy = 0.0\nsamples = 1\nvalue = [0, 100]"] ;
46 -> 50 ;
51 [label="entropy = 0.0\nsamples = 1\nvalue = [0, 50]"] ;
29 -> 51 ;
52 [label="entropy = 0.0\nsamples = 1\nvalue = [1, 0]"] ;
28 -> 52 ;
53 [label="entropy = 0.0\nsamples = 2\nvalue = [2, 0]"] ;
27 -> 53 ;
54 [label="entropy = 0.0\nsamples = 1\nvalue = [0, 50]"] ;
26 -> 54 ;
55 [label="entropy = 0.0\nsamples = 1\nvalue = [1, 0]"] ;
25 -> 55 ;
56 [label="entropy = 0.0\nsamples = 1\nvalue = [1, 0]"] ;
22 -> 56 ;
57 [label="entropy = 0.0\nsamples = 1\nvalue = [2, 0]"] ;
21 -> 57 ;
58 [label="entropy = 0.0\nsamples = 2\nvalue = [3, 0]"] ;
20 -> 58 ;
59 [label="entropy = 0.0\nsamples = 2\nvalue = [4, 0]"] ;
19 -> 59 ;
60 [label="entropy = 0.0\nsamples = 1\nvalue = [0, 50]"] ;
18 -> 60 ;
61 [label="pr <= 0.5\nentropy = 0.1\nsamples = 7\nvalue = [4, 250]"] ;
17 -> 61 ;
62 [label="Normal <= 0.5\nentropy = 0.1\nsamples = 6\nvalue = [3, 250]"] ;
61 -> 62 ;
63 [label="no <= 0.5\nentropy = 0.1\nsamples = 5\nvalue = [2, 250]"] ;
62 -> 63 ;
64 [label="diet <= 0.5\nentropy = 0.0\nsamples = 4\nvalue = [1, 250]"] ;
63 -> 64 ;
65 [label="entropy = 0.0\nsamples = 2\nvalue = [0, 200]"] ;
64 -> 65 ;
66 [label="stable <= 0.5\nentropy = 0.1\nsamples = 2\nvalue = [1, 50]"] ;
64 -> 66 ;
67 [label="entropy = 0.0\nsamples = 1\nvalue = [1, 0]"] ;
66 -> 67 ;
68 [label="entropy = 0.0\nsamples = 1\nvalue = [0, 50]"] ;
66 -> 68 ;
69 [label="entropy = 0.0\nsamples = 1\nvalue = [1, 0]"] ;
63 -> 69 ;
70 [label="entropy = 0.0\nsamples = 1\nvalue = [1, 0]"] ;
62 -> 70 ;
71 [label="entropy = 0.0\nsamples = 1\nvalue = [1, 0]"] ;
61 -> 71 ;
72 [label="entropy = 0.0\nsamples = 1\nvalue = [1, 0]"] ;
16 -> 72 ;
73 [label="entropy = 0.0\nsamples = 1\nvalue = [0, 250]"] ;
15 -> 73 ;
74 [label="entropy = 0.0\nsamples = 1\nvalue = [0, 50]"] ;
14 -> 74 ;
75 [label="entropy = 0.0\nsamples = 2\nvalue = [3, 0]"] ;
13 -> 75 ;
76 [label="entropy = 0.0\nsamples = 2\nvalue = [2, 0]"] ;
12 -> 76 ;
77 [label="entropy = 0.0\nsamples = 2\nvalue = [4, 0]"] ;
11 -> 77 ;
78 [label="clear <= 0.5\nentropy = 0.6\nsamples = 41\nvalue = [54, 300]"] ;
10 -> 78 ;
79 [label="Exploratory laparotomy <= 0.5\nentropy = 0.6\nsamples = 38\nvalue = [48, 300]"] ;
78 -> 79 ;
80 [label="Potassium <= 0.5\nentropy = 0.7\nsamples = 36\nvalue = [47, 200]"] ;
79 -> 80 ;
81 [label="adhesiolysis <= 0.5\nentropy = 0.9\nsamples = 35\nvalue = [47, 100]"] ;
80 -> 81 ;
82 [label="urine <= 550.0\nentropy = 1.0\nsamples = 34\nvalue = [47, 50]"] ;
81 -> 82 ;
83 [label="entropy = 0.0\nsamples = 4\nvalue = [4, 0]"] ;
82 -> 83 ;
84 [label="Patient <= 0.5\nentropy = 1.0\nsamples = 30\nvalue = [43, 50]"] ;
82 -> 84 ;
85 [label="drainage <= 0.5\nentropy = 1.0\nsamples = 24\nvalue = [37, 50]"] ;
84 -> 85 ;
86 [label="healthy <= 0.5\nentropy = 1.0\nsamples = 23\nvalue = [36, 50]"] ;
85 -> 86 ;
87 [label="entropy = 0.0\nsamples = 18\nvalue = [31, 0]"] ;
86 -> 87 ;
88 [label="soft diet <= 0.5\nentropy = 0.4\nsamples = 5\nvalue = [5, 50]"] ;
86 -> 88 ;
89 [label="entropy = 0.0\nsamples = 2\nvalue = [3, 0]"] ;
88 -> 89 ;
90 [label="reflux <= 0.5\nentropy = 0.2\nsamples = 3\nvalue = [2, 50]"] ;
88 -> 90 ;
91 [label="ileostomy <= 0.5\nentropy = 0.1\nsamples = 2\nvalue = [1, 50]"] ;
90 -> 91 ;
92 [label="entropy = 0.0\nsamples = 1\nvalue = [0, 50]"] ;
91 -> 92 ;
93 [label="entropy = 0.0\nsamples = 1\nvalue = [1, 0]"] ;
91 -> 93 ;
94 [label="entropy = 0.0\nsamples = 1\nvalue = [1, 0]"] ;
90 -> 94 ;
95 [label="entropy = 0.0\nsamples = 1\nvalue = [1, 0]"] ;
85 -> 95 ;
96 [label="entropy = 0.0\nsamples = 6\nvalue = [6, 0]"] ;
84 -> 96 ;
97 [label="entropy = 0.0\nsamples = 1\nvalue = [0, 50]"] ;
81 -> 97 ;
98 [label="entropy = 0.0\nsamples = 1\nvalue = [0, 100]"] ;
80 -> 98 ;
99 [label="Flatus <= 0.5\nentropy = 0.1\nsamples = 2\nvalue = [1, 100]"] ;
79 -> 99 ;
100 [label="entropy = 0.0\nsamples = 1\nvalue = [0, 100]"] ;
99 -> 100 ;
101 [label="entropy = 0.0\nsamples = 1\nvalue = [1, 0]"] ;
99 -> 101 ;
102 [label="entropy = 0.0\nsamples = 3\nvalue = [6, 0]"] ;
78 -> 102 ;
103 [label="entropy = 0.0\nsamples = 3\nvalue = [6, 0]"] ;
9 -> 103 ;
104 [label="each <= 0.5\nentropy = 0.1\nsamples = 11\nvalue = [4, 650]"] ;
8 -> 104 ;
105 [label="ADHESIOLYSIS <= 0.5\nentropy = 0.1\nsamples = 10\nvalue = [4, 550]"] ;
104 -> 105 ;
106 [label="ileostomy <= 0.5\nentropy = 0.0\nsamples = 9\nvalue = [3, 550]"] ;
105 -> 106 ;
107 [label="air <= 0.5\nentropy = 0.0\nsamples = 8\nvalue = [2, 550]"] ;
106 -> 107 ;
108 [label="flatus <= 0.5\nentropy = 0.0\nsamples = 6\nvalue = [2, 400]"] ;
107 -> 108 ;
109 [label="tachycardia <= 0.5\nentropy = 0.1\nsamples = 3\nvalue = [2, 150]"] ;
108 -> 109 ;
110 [label="entropy = 0.0\nsamples = 1\nvalue = [2, 0]"] ;
109 -> 110 ;
111 [label="entropy = 0.0\nsamples = 2\nvalue = [0, 150]"] ;
109 -> 111 ;
112 [label="entropy = 0.0\nsamples = 3\nvalue = [0, 250]"] ;
108 -> 112 ;
113 [label="entropy = 0.0\nsamples = 2\nvalue = [0, 150]"] ;
107 -> 113 ;
114 [label="entropy = 0.0\nsamples = 1\nvalue = [1, 0]"] ;
106 -> 114 ;
115 [label="entropy = 0.0\nsamples = 1\nvalue = [1, 0]"] ;
105 -> 115 ;
116 [label="entropy = 0.0\nsamples = 1\nvalue = [0, 100]"] ;
104 -> 116 ;
117 [label="entropy = 0.0\nsamples = 1\nvalue = [2, 0]"] ;
7 -> 117 ;
118 [label="entropy = 0.0\nsamples = 2\nvalue = [3, 0]"] ;
6 -> 118 ;
119 [label="entropy = 0.0\nsamples = 5\nvalue = [7, 0]"] ;
5 -> 119 ;
120 [label="entropy = 0.0\nsamples = 4\nvalue = [5, 0]"] ;
4 -> 120 ;
121 [label="clear <= 0.5\nentropy = 0.0\nsamples = 13\nvalue = [4, 1000]"] ;
3 -> 121 ;
122 [label="entropy = 0.0\nsamples = 11\nvalue = [0, 1000]"] ;
121 -> 122 ;
123 [label="entropy = 0.0\nsamples = 2\nvalue = [4, 0]"] ;
121 -> 123 ;
124 [label="biopsy <= 0.5\nentropy = 0.5\nsamples = 312\nvalue = [433, 3400]"] ;
2 -> 124 ;
125 [label="fentanyl <= 0.5\nentropy = 0.5\nsamples = 284\nvalue = [392, 3400]"] ;
124 -> 125 ;
126 [label="SERUM_ALBUMIN <= 1.7\nentropy = 0.5\nsamples = 277\nvalue = [380, 3400]"] ;
125 -> 126 ;
127 [label="entropy = 0.0\nsamples = 13\nvalue = [23, 0]"] ;
126 -> 127 ;
128 [label="ct <= 0.5\nentropy = 0.5\nsamples = 264\nvalue = [357, 3400]"] ;
126 -> 128 ;
129 [label="rr <= 0.5\nentropy = 0.5\nsamples = 252\nvalue = [347, 2900]"] ;
128 -> 129 ;
130 [label="spo2 <= 98.5\nentropy = 0.5\nsamples = 249\nvalue = [347, 2700]"] ;
129 -> 130 ;
131 [label="entropy = 0.0\nsamples = 5\nvalue = [10, 0]"] ;
130 -> 131 ;
132 [label="Pt <= 0.5\nentropy = 0.5\nsamples = 244\nvalue = [337, 2700]"] ;
130 -> 132 ;
133 [label="Phosphorous Test <= 2.1\nentropy = 0.5\nsamples = 240\nvalue = [331, 2700]"] ;
132 -> 133 ;
134 [label="entropy = 0.0\nsamples = 5\nvalue = [13, 0]"] ;
133 -> 134 ;
135 [label="hrs <= 0.5\nentropy = 0.5\nsamples = 235\nvalue = [318, 2700]"] ;
133 -> 135 ;
136 [label="small bowel obstruction <= 0.5\nentropy = 0.5\nsamples = 221\nvalue = [294, 2700]"] ;
135 -> 136 ;
137 [label="HIGH <= 0.5\nentropy = 0.5\nsamples = 219\nvalue = [289, 2700]"] ;
136 -> 137 ;
138 [label="weight <= 48.5\nentropy = 0.5\nsamples = 217\nvalue = [283, 2700]"] ;
137 -> 138 ;
139 [label="entropy = 0.0\nsamples = 20\nvalue = [27, 0]"] ;
138 -> 139 ;
140 [label="DT <= 0.5\nentropy = 0.4\nsamples = 197\nvalue = [256, 2700]"] ;
138 -> 140 ;
141 [label="FEVER <= 0.5\nentropy = 0.4\nsamples = 189\nvalue = [246, 2700]"] ;
140 -> 141 ;
142 [label="Height <= 172.5\nentropy = 0.4\nsamples = 181\nvalue = [231, 2700]"] ;
141 -> 142 ;
143 [label="Chest <= 0.5\nentropy = 0.4\nsamples = 149\nvalue = [184, 2600]"] ;
142 -> 143 ;
144 [label="anterior <= 0.5\nentropy = 0.3\nsamples = 144\nvalue = [176, 2600]"] ;
143 -> 144 ;
145 [label="itching <= 0.5\nentropy = 0.3\nsamples = 139\nvalue = [169, 2600]"] ;
144 -> 145 ;
146 [label="Air <= 0.5\nentropy = 0.3\nsamples = 137\nvalue = [163, 2600]"] ;
145 -> 146 ;
147 [label="drop <= 0.5\nentropy = 0.3\nsamples = 135\nvalue = [158, 2600]"] ;
146 -> 147 ;
148 [label="Hypertension <= 0.5\nentropy = 0.3\nsamples = 132\nvalue = [154, 2600]"] ;
147 -> 148 ;
149 [label="drowsy <= 0.5\nentropy = 0.3\nsamples = 130\nvalue = [148, 2600]"] ;
148 -> 149 ;
150 [label="distress <= 0.5\nentropy = 0.3\nsamples = 128\nvalue = [145, 2600]"] ;
149 -> 150 ;
151 [label="urine <= 96.5\nentropy = 0.3\nsamples = 125\nvalue = [142, 2600]"] ;
150 -> 151 ;
152 [label="entropy = 0.0\nsamples = 2\nvalue = [3, 0]"] ;
151 -> 152 ;
153 [label="arrhythmia <= 0.5\nentropy = 0.3\nsamples = 123\nvalue = [139, 2600]"] ;
151 -> 153 ;
154 [label="Abdominal <= 0.5\nentropy = 0.3\nsamples = 121\nvalue = [139, 2350]"] ;
153 -> 154 ;
155 [label="BD <= 0.5\nentropy = 0.3\nsamples = 112\nvalue = [133, 1900]"] ;
154 -> 155 ;
156 [label="duodenal perforation <= 0.5\nentropy = 0.3\nsamples = 110\nvalue = [128, 1900]"] ;
155 -> 156 ;
157 [label="umbilical hernia <= 0.5\nentropy = 0.3\nsamples = 108\nvalue = [124, 1900]"] ;
156 -> 157 ;
158 [label="vomiting <= 0.5\nentropy = 0.3\nsamples = 106\nvalue = [121, 1900]"] ;
157 -> 158 ;
159 [label="Height <= 164.0\nentropy = 0.7\nsamples = 22\nvalue = [31, 150]"] ;
158 -> 159 ;
160 [label="abdominal <= 0.5\nentropy = 0.5\nsamples = 15\nvalue = [18, 150]"] ;
159 -> 160 ;
161 [label="temp <= 97.5\nentropy = 0.5\nsamples = 14\nvalue = [17, 150]"] ;
160 -> 161 ;
162 [label="entropy = 0.0\nsamples = 1\nvalue = [0, 100]"] ;
161 -> 162 ;
163 [label="SERUM_CREATININE <= 0.9\nentropy = 0.8\nsamples = 13\nvalue = [17, 50]"] ;
161 -> 163 ;
164 [label="entropy = 0.0\nsamples = 12\nvalue = [17, 0]"] ;
163 -> 164 ;
165 [label="entropy = 0.0\nsamples = 1\nvalue = [0, 50]"] ;
163 -> 165 ;
166 [label="entropy = 0.0\nsamples = 1\nvalue = [1, 0]"] ;
160 -> 166 ;
167 [label="entropy = 0.0\nsamples = 7\nvalue = [13, 0]"] ;
159 -> 167 ;
168 [label="treatment <= 0.5\nentropy = 0.3\nsamples = 84\nvalue = [90, 1750]"] ;
158 -> 168 ;
169 [label="Few <= 0.5\nentropy = 0.3\nsamples = 79\nvalue = [82, 1750]"] ;
168 -> 169 ;
170 [label="PLT <= 154500.0\nentropy = 0.3\nsamples = 78\nvalue = [79, 1750]"] ;
169 -> 170 ;
171 [label="entropy = 0.0\nsamples = 4\nvalue = [7, 0]"] ;
170 -> 171 ;
172 [label="Abdomen <= 0.5\nentropy = 0.2\nsamples = 74\nvalue = [72, 1750]"] ;
170 -> 172 ;
173 [label="afternoon <= 0.5\nentropy = 0.2\nsamples = 72\nvalue = [69, 1750]"] ;
172 -> 173 ;
174 [label="gastrostomy <= 0.5\nentropy = 0.2\nsamples = 71\nvalue = [66, 1750]"] ;
173 -> 174 ;
175 [label="purulent <= 0.5\nentropy = 0.2\nsamples = 70\nvalue = [64, 1750]"] ;
174 -> 175 ;
176 [label="face <= 0.5\nentropy = 0.2\nsamples = 68\nvalue = [61, 1750]"] ;
175 -> 176 ;
177 [label="NAUSEA <= 0.5\nentropy = 0.2\nsamples = 67\nvalue = [59, 1750]"] ;
176 -> 177 ;
178 [label="PV <= 0.5\nentropy = 0.2\nsamples = 65\nvalue = [55, 1750]"] ;
177 -> 178 ;
179 [label="PR <= 0.5\nentropy = 0.2\nsamples = 64\nvalue = [52, 1750]"] ;
178 -> 179 ;
180 [label="gastrograffin <= 0.5\nentropy = 0.2\nsamples = 60\nvalue = [46, 1750]"] ;
179 -> 180 ;
181 [label="Blood transfusion <= 0.5\nentropy = 0.2\nsamples = 53\nvalue = [38, 1700]"] ;
180 -> 181 ;
182 [label="yes <= 0.5\nentropy = 0.2\nsamples = 50\nvalue = [38, 1450]"] ;
181 -> 182 ;
183 [label="ulcer <= 0.5\nentropy = 0.2\nsamples = 49\nvalue = [38, 1250]"] ;
182 -> 183 ;
184 [label="Stop <= 0.5\nentropy = 0.2\nsamples = 48\nvalue = [36, 1250]"] ;
183 -> 184 ;
185 [label="single <= 0.5\nentropy = 0.2\nsamples = 46\nvalue = [34, 1250]"] ;
184 -> 185 ;
186 [label="serum sodium <= 0.5\nentropy = 0.2\nsamples = 43\nvalue = [30, 1250]"] ;
185 -> 186 ;
187 [label="Hiccups <= 0.5\nentropy = 0.2\nsamples = 42\nvalue = [28, 1250]"] ;
186 -> 187 ;
188 [label="Height <= 151.0\nentropy = 0.1\nsamples = 41\nvalue = [27, 1250]"] ;
187 -> 188 ;
189 [label="entropy = 0.0\nsamples = 3\nvalue = [3, 0]"] ;
188 -> 189 ;
190 [label="Abscess <= 0.5\nentropy = 0.1\nsamples = 38\nvalue = [24, 1250]"] ;
188 -> 190 ;
191 [label="SITE <= 0.5\nentropy = 0.1\nsamples = 37\nvalue = [23, 1250]"] ;
190 -> 191 ;
192 [label="bypass <= 0.5\nentropy = 0.1\nsamples = 36\nvalue = [22, 1250]"] ;
191 -> 192 ;
193 [label="ALKALINE_PHOSPHATASE <= 95.5\nentropy = 0.1\nsamples = 35\nvalue = [22, 1100]"] ;
192 -> 193 ;
194 [label="air <= 0.5\nentropy = 0.2\nsamples = 32\nvalue = [22, 850]"] ;
193 -> 194 ;
195 [label="Soft diet <= 0.5\nentropy = 0.1\nsamples = 25\nvalue = [15, 800]"] ;
194 -> 195 ;
196 [label="prothrombin <= 1.2\nentropy = 0.2\nsamples = 21\nvalue = [14, 600]"] ;
195 -> 196 ;
197 [label="entropy = 0.0\nsamples = 1\nvalue = [1, 0]"] ;
196 -> 197 ;
198 [label="GB <= 0.5\nentropy = 0.1\nsamples = 20\nvalue = [13, 600]"] ;
196 -> 198 ;
199 [label="MIN <= 0.5\nentropy = 0.1\nsamples = 19\nvalue = [12, 600]"] ;
198 -> 199 ;
200 [label="heart <= 0.5\nentropy = 0.1\nsamples = 18\nvalue = [11, 600]"] ;
199 -> 200 ;
201 [label="rta <= 0.5\nentropy = 0.1\nsamples = 17\nvalue = [9, 600]"] ;
200 -> 201 ;
202 [label="ANTIBIOTICS <= 0.5\nentropy = 0.1\nsamples = 16\nvalue = [7, 600]"] ;
201 -> 202 ;
203 [label="Platelet <= 0.5\nentropy = 0.1\nsamples = 15\nvalue = [6, 600]"] ;
202 -> 203 ;
204 [label="weight <= 86.5\nentropy = 0.1\nsamples = 14\nvalue = [5, 600]"] ;
203 -> 204 ;
205 [label="soft diet <= 0.5\nentropy = 0.0\nsamples = 11\nvalue = [3, 550]"] ;
204 -> 205 ;
206 [label="entropy = 0.0\nsamples = 4\nvalue = [0, 250]"] ;
205 -> 206 ;
207 [label="Liquid <= 0.5\nentropy = 0.1\nsamples = 7\nvalue = [3, 300]"] ;
205 -> 207 ;
208 [label="flatus <= 0.5\nentropy = 0.0\nsamples = 6\nvalue = [1, 300]"] ;
207 -> 208 ;
209 [label="entropy = 0.0\nsamples = 1\nvalue = [0, 50]"] ;
208 -> 209 ;
210 [label="mL <= 0.5\nentropy = 0.0\nsamples = 5\nvalue = [1, 250]"] ;
208 -> 210 ;
211 [label="entropy = 0.0\nsamples = 3\nvalue = [0, 200]"] ;
210 -> 211 ;
212 [label="IV <= 0.5\nentropy = 0.1\nsamples = 2\nvalue = [1, 50]"] ;
210 -> 212 ;
213 [label="entropy = 0.0\nsamples = 1\nvalue = [1, 0]"] ;
212 -> 213 ;
214 [label="entropy = 0.0\nsamples = 1\nvalue = [0, 50]"] ;
212 -> 214 ;
215 [label="entropy = 0.0\nsamples = 1\nvalue = [2, 0]"] ;
207 -> 215 ;
216 [label="morning <= 0.5\nentropy = 0.2\nsamples = 3\nvalue = [2, 50]"] ;
204 -> 216 ;
217 [label="entropy = 0.0\nsamples = 1\nvalue = [1, 0]"] ;
216 -> 217 ;
218 [label="right <= 0.5\nentropy = 0.1\nsamples = 2\nvalue = [1, 50]"] ;
216 -> 218 ;
219 [label="entropy = 0.0\nsamples = 1\nvalue = [1, 0]"] ;
218 -> 219 ;
220 [label="entropy = 0.0\nsamples = 1\nvalue = [0, 50]"] ;
218 -> 220 ;
221 [label="entropy = 0.0\nsamples = 1\nvalue = [1, 0]"] ;
203 -> 221 ;
222 [label="entropy = 0.0\nsamples = 1\nvalue = [1, 0]"] ;
202 -> 222 ;
223 [label="entropy = 0.0\nsamples = 1\nvalue = [2, 0]"] ;
201 -> 223 ;
224 [label="entropy = 0.0\nsamples = 1\nvalue = [2, 0]"] ;
200 -> 224 ;
225 [label="entropy = 0.0\nsamples = 1\nvalue = [1, 0]"] ;
199 -> 225 ;
226 [label="entropy = 0.0\nsamples = 1\nvalue = [1, 0]"] ;
198 -> 226 ;
227 [label="BILIRUBIN <= 0.8\nentropy = 0.0\nsamples = 4\nvalue = [1, 200]"] ;
195 -> 227 ;
228 [label="entropy = 0.0\nsamples = 1\nvalue = [0, 50]"] ;
227 -> 228 ;
229 [label="urine <= 351.0\nentropy = 0.1\nsamples = 3\nvalue = [1, 150]"] ;
227 -> 229 ;
230 [label="entropy = 0.0\nsamples = 1\nvalue = [0, 50]"] ;
229 -> 230 ;
231 [label="abdomen <= 0.5\nentropy = 0.1\nsamples = 2\nvalue = [1, 100]"] ;
229 -> 231 ;
232 [label="entropy = 0.0\nsamples = 1\nvalue = [0, 100]"] ;
231 -> 232 ;
233 [label="entropy = 0.0\nsamples = 1\nvalue = [1, 0]"] ;
231 -> 233 ;
234 [label="closure <= 0.5\nentropy = 0.5\nsamples = 7\nvalue = [7, 50]"] ;
194 -> 234 ;
235 [label="entropy = 0.0\nsamples = 4\nvalue = [4, 0]"] ;
234 -> 235 ;
236 [label="present <= 0.5\nentropy = 0.3\nsamples = 3\nvalue = [3, 50]"] ;
234 -> 236 ;
237 [label="entropy = 0.0\nsamples = 2\nvalue = [3, 0]"] ;
236 -> 237 ;
238 [label="entropy = 0.0\nsamples = 1\nvalue = [0, 50]"] ;
236 -> 238 ;
239 [label="entropy = 0.0\nsamples = 3\nvalue = [0, 250]"] ;
193 -> 239 ;
240 [label="entropy = 0.0\nsamples = 1\nvalue = [0, 150]"] ;
192 -> 240 ;
241 [label="entropy = 0.0\nsamples = 1\nvalue = [1, 0]"] ;
191 -> 241 ;
242 [label="entropy = 0.0\nsamples = 1\nvalue = [1, 0]"] ;
190 -> 242 ;
243 [label="entropy = 0.0\nsamples = 1\nvalue = [1, 0]"] ;
187 -> 243 ;
244 [label="entropy = 0.0\nsamples = 1\nvalue = [2, 0]"] ;
186 -> 244 ;
245 [label="entropy = 0.0\nsamples = 3\nvalue = [4, 0]"] ;
185 -> 245 ;
246 [label="entropy = 0.0\nsamples = 2\nvalue = [2, 0]"] ;
184 -> 246 ;
247 [label="entropy = 0.0\nsamples = 1\nvalue = [2, 0]"] ;
183 -> 247 ;
248 [label="entropy = 0.0\nsamples = 1\nvalue = [0, 200]"] ;
182 -> 248 ;
249 [label="entropy = 0.0\nsamples = 3\nvalue = [0, 250]"] ;
181 -> 249 ;
250 [label="urine <= 500.0\nentropy = 0.6\nsamples = 7\nvalue = [8, 50]"] ;
180 -> 250 ;
251 [label="entropy = 0.0\nsamples = 4\nvalue = [6, 0]"] ;
250 -> 251 ;
252 [label="IVF <= 0.5\nentropy = 0.2\nsamples = 3\nvalue = [2, 50]"] ;
250 -> 252 ;
253 [label="entropy = 0.0\nsamples = 1\nvalue = [1, 0]"] ;
252 -> 253 ;
254 [label="single <= 0.5\nentropy = 0.1\nsamples = 2\nvalue = [1, 50]"] ;
252 -> 254 ;
255 [label="entropy = 0.0\nsamples = 1\nvalue = [1, 0]"] ;
254 -> 255 ;
256 [label="entropy = 0.0\nsamples = 1\nvalue = [0, 50]"] ;
254 -> 256 ;
257 [label="entropy = 0.0\nsamples = 4\nvalue = [6, 0]"] ;
179 -> 257 ;
258 [label="entropy = 0.0\nsamples = 1\nvalue = [3, 0]"] ;
178 -> 258 ;
259 [label="entropy = 0.0\nsamples = 2\nvalue = [4, 0]"] ;
177 -> 259 ;
260 [label="entropy = 0.0\nsamples = 1\nvalue = [2, 0]"] ;
176 -> 260 ;
261 [label="entropy = 0.0\nsamples = 2\nvalue = [3, 0]"] ;
175 -> 261 ;
262 [label="entropy = 0.0\nsamples = 1\nvalue = [2, 0]"] ;
174 -> 262 ;
263 [label="entropy = 0.0\nsamples = 1\nvalue = [3, 0]"] ;
173 -> 263 ;
264 [label="entropy = 0.0\nsamples = 2\nvalue = [3, 0]"] ;
172 -> 264 ;
265 [label="entropy = 0.0\nsamples = 1\nvalue = [3, 0]"] ;
169 -> 265 ;
266 [label="entropy = 0.0\nsamples = 5\nvalue = [8, 0]"] ;
168 -> 266 ;
267 [label="entropy = 0.0\nsamples = 2\nvalue = [3, 0]"] ;
157 -> 267 ;
268 [label="entropy = 0.0\nsamples = 2\nvalue = [4, 0]"] ;
156 -> 268 ;
269 [label="entropy = 0.0\nsamples = 2\nvalue = [5, 0]"] ;
155 -> 269 ;
270 [label="Upper GI endoscopy <= 0.5\nentropy = 0.1\nsamples = 9\nvalue = [6, 450]"] ;
154 -> 270 ;
271 [label="di <= 0.5\nentropy = 0.1\nsamples = 8\nvalue = [6, 350]"] ;
270 -> 271 ;
272 [label="Fever <= 0.5\nentropy = 0.1\nsamples = 7\nvalue = [4, 350]"] ;
271 -> 272 ;
273 [label="TLC <= 0.5\nentropy = 0.1\nsamples = 5\nvalue = [2, 350]"] ;
272 -> 273 ;
274 [label="entropy = 0.0\nsamples = 3\nvalue = [0, 300]"] ;
273 -> 274 ;
275 [label="morning <= 0.5\nentropy = 0.2\nsamples = 2\nvalue = [2, 50]"] ;
273 -> 275 ;
276 [label="entropy = 0.0\nsamples = 1\nvalue = [0, 50]"] ;
275 -> 276 ;
277 [label="entropy = 0.0\nsamples = 1\nvalue = [2, 0]"] ;
275 -> 277 ;
278 [label="entropy = 0.0\nsamples = 2\nvalue = [2, 0]"] ;
272 -> 278 ;
279 [label="entropy = 0.0\nsamples = 1\nvalue = [2, 0]"] ;
271 -> 279 ;
280 [label="entropy = 0.0\nsamples = 1\nvalue = [0, 100]"] ;
270 -> 280 ;
281 [label="entropy = 0.0\nsamples = 2\nvalue = [0, 250]"] ;
153 -> 281 ;
282 [label="entropy = 0.0\nsamples = 3\nvalue = [3, 0]"] ;
150 -> 282 ;
283 [label="entropy = 0.0\nsamples = 2\nvalue = [3, 0]"] ;
149 -> 283 ;
284 [label="entropy = 0.0\nsamples = 2\nvalue = [6, 0]"] ;
148 -> 284 ;
285 [label="entropy = 0.0\nsamples = 3\nvalue = [4, 0]"] ;
147 -> 285 ;
286 [label="entropy = 0.0\nsamples = 2\nvalue = [5, 0]"] ;
146 -> 286 ;
287 [label="entropy = 0.0\nsamples = 2\nvalue = [6, 0]"] ;
145 -> 287 ;
288 [label="entropy = 0.0\nsamples = 5\nvalue = [7, 0]"] ;
144 -> 288 ;
289 [label="entropy = 0.0\nsamples = 5\nvalue = [8, 0]"] ;
143 -> 289 ;
290 [label="glucose <= 0.5\nentropy = 0.9\nsamples = 32\nvalue = [47, 100]"] ;
142 -> 290 ;
291 [label="ITCHING <= 0.5\nentropy = 1.0\nsamples = 31\nvalue = [47, 50]"] ;
290 -> 291 ;
292 [label="entropy = 0.0\nsamples = 30\nvalue = [47, 0]"] ;
291 -> 292 ;
293 [label="entropy = 0.0\nsamples = 1\nvalue = [0, 50]"] ;
291 -> 293 ;
294 [label="entropy = 0.0\nsamples = 1\nvalue = [0, 50]"] ;
290 -> 294 ;
295 [label="entropy = 0.0\nsamples = 8\nvalue = [15, 0]"] ;
141 -> 295 ;
296 [label="entropy = 0.0\nsamples = 8\nvalue = [10, 0]"] ;
140 -> 296 ;
297 [label="entropy = 0.0\nsamples = 2\nvalue = [6, 0]"] ;
137 -> 297 ;
298 [label="entropy = 0.0\nsamples = 2\nvalue = [5, 0]"] ;
136 -> 298 ;
299 [label="entropy = 0.0\nsamples = 14\nvalue = [24, 0]"] ;
135 -> 299 ;
300 [label="entropy = 0.0\nsamples = 4\nvalue = [6, 0]"] ;
132 -> 300 ;
301 [label="entropy = 0.0\nsamples = 3\nvalue = [0, 200]"] ;
129 -> 301 ;
302 [label="Height <= 160.5\nentropy = 0.1\nsamples = 12\nvalue = [10, 500]"] ;
128 -> 302 ;
303 [label="entropy = 0.0\nsamples = 3\nvalue = [5, 0]"] ;
302 -> 303 ;
304 [label="gastrograffin <= 0.5\nentropy = 0.1\nsamples = 9\nvalue = [5, 500]"] ;
302 -> 304 ;
305 [label="Pancreatic necrosectomy <= 0.5\nentropy = 0.1\nsamples = 8\nvalue = [4, 500]"] ;
304 -> 305 ;
306 [label="BILIRUBIN <= 0.9\nentropy = 0.1\nsamples = 7\nvalue = [3, 500]"] ;
305 -> 306 ;
307 [label="entropy = 0.0\nsamples = 6\nvalue = [0, 500]"] ;
306 -> 307 ;
308 [label="entropy = 0.0\nsamples = 1\nvalue = [3, 0]"] ;
306 -> 308 ;
309 [label="entropy = 0.0\nsamples = 1\nvalue = [1, 0]"] ;
305 -> 309 ;
310 [label="entropy = 0.0\nsamples = 1\nvalue = [1, 0]"] ;
304 -> 310 ;
311 [label="entropy = 0.0\nsamples = 7\nvalue = [12, 0]"] ;
125 -> 311 ;
312 [label="entropy = 0.0\nsamples = 28\nvalue = [41, 0]"] ;
124 -> 312 ;
}